digraph Tree {
node [shape=box, style="filled, rounded", color="black", fontname="helvetica"] ;
edge [fontname="helvetica"] ;
0 [label=<5Y_val &le; 1.445<br/>squared_error = 0.029<br/>samples = 670<br/>value = 0.064>, fillcolor="#efb185"] ;
1 [label=<5Y_val &le; -0.455<br/>squared_error = 0.026<br/>samples = 657<br/>value = 0.07>, fillcolor="#efb184"] ;
0 -> 1 [labeldistance=2.5, labelangle=45, headlabel="True"] ;
2 [label=<5Y_val &le; -0.529<br/>squared_error = 0.017<br/>samples = 18<br/>value = 0.342>, fillcolor="#e9965b"] ;
1 -> 2 ;
3 [label=<5Y_val &le; -0.645<br/>squared_error = 0.004<br/>samples = 7<br/>value = 0.445>, fillcolor="#e78d4b"] ;
2 -> 3 ;
4 [label=<squared_error = 0.0<br/>samples = 1<br/>value = 0.566>, fillcolor="#e58139"] ;
3 -> 4 ;
5 [label=<5Y_val &le; -0.577<br/>squared_error = 0.002<br/>samples = 6<br/>value = 0.425>, fillcolor="#e88f4e"] ;
3 -> 5 ;
6 [label=<9M_Mom &le; -0.022<br/>squared_error = 0.002<br/>samples = 4<br/>value = 0.441>, fillcolor="#e78d4c"] ;
5 -> 6 ;
7 [label=<5Y_val &le; -0.613<br/>squared_error = 0.001<br/>samples = 2<br/>value = 0.481>, fillcolor="#e78946"] ;
6 -> 7 ;
8 [label=<squared_error = 0.0<br/>samples = 1<br/>value = 0.51>, fillcolor="#e68642"] ;
7 -> 8 ;
9 [label=<squared_error = 0.0<br/>samples = 1<br/>value = 0.453>, fillcolor="#e78c4a"] ;
7 -> 9 ;
10 [label=<5Y_val &le; -0.618<br/>squared_error = 0.0<br/>samples = 2<br/>value = 0.401>, fillcolor="#e89152"] ;
6 -> 10 ;
11 [label=<squared_error = 0.0<br/>samples = 1<br/>value = 0.395>, fillcolor="#e89153"] ;
10 -> 11 ;
12 [label=<squared_error = 0.0<br/>samples = 1<br/>value = 0.408>, fillcolor="#e89051"] ;
10 -> 12 ;
13 [label=<5Y_val &le; -0.543<br/>squared_error = 0.001<br/>samples = 2<br/>value = 0.391>, fillcolor="#e89253"] ;
5 -> 13 ;
14 [label=<squared_error = 0.0<br/>samples = 1<br/>value = 0.369>, fillcolor="#e99457"] ;
13 -> 14 ;
15 [label=<squared_error = 0.0<br/>samples = 1<br/>value = 0.414>, fillcolor="#e89050"] ;
13 -> 15 ;
16 [label=<9M_Mom &le; -0.157<br/>squared_error = 0.014<br/>samples = 11<br/>value = 0.277>, fillcolor="#eb9d65"] ;
2 -> 16 ;
17 [label=<5Y_val &le; -0.48<br/>squared_error = 0.0<br/>samples = 2<br/>value = 0.397>, fillcolor="#e89153"] ;
16 -> 17 ;
18 [label=<squared_error = 0.0<br/>samples = 1<br/>value = 0.396>, fillcolor="#e89153"] ;
17 -> 18 ;
19 [label=<squared_error = 0.0<br/>samples = 1<br/>value = 0.397>, fillcolor="#e89152"] ;
17 -> 19 ;
20 [label=<9M_Mom &le; -0.053<br/>squared_error = 0.013<br/>samples = 9<br/>value = 0.251>, fillcolor="#eb9f69"] ;
16 -> 20 ;
21 [label=<5Y_val &le; -0.495<br/>squared_error = 0.01<br/>samples = 5<br/>value = 0.174>, fillcolor="#eda774"] ;
20 -> 21 ;
22 [label=<9M_Mom &le; -0.067<br/>squared_error = 0.003<br/>samples = 3<br/>value = 0.244>, fillcolor="#eba06a"] ;
21 -> 22 ;
23 [label=<9M_Mom &le; -0.09<br/>squared_error = 0.001<br/>samples = 2<br/>value = 0.279>, fillcolor="#eb9d64"] ;
22 -> 23 ;
24 [label=<squared_error = 0.0<br/>samples = 1<br/>value = 0.311>, fillcolor="#ea9a60"] ;
23 -> 24 ;
25 [label=<squared_error = 0.0<br/>samples = 1<br/>value = 0.247>, fillcolor="#eba069"] ;
23 -> 25 ;
26 [label=<squared_error = -0.0<br/>samples = 1<br/>value = 0.173>, fillcolor="#eda774"] ;
22 -> 26 ;
27 [label=<9M_Mom &le; -0.105<br/>squared_error = 0.002<br/>samples = 2<br/>value = 0.069>, fillcolor="#efb184"] ;
21 -> 27 ;
28 [label=<squared_error = 0.0<br/>samples = 1<br/>value = 0.117>, fillcolor="#eeac7d"] ;
27 -> 28 ;
29 [label=<squared_error = 0.0<br/>samples = 1<br/>value = 0.021>, fillcolor="#f0b58b"] ;
27 -> 29 ;
30 [label=<9M_Mom &le; 0.036<br/>squared_error = 0.0<br/>samples = 4<br/>value = 0.347>, fillcolor="#e9965a"] ;
20 -> 30 ;
31 [label=<squared_error = 0.0<br/>samples = 1<br/>value = 0.314>, fillcolor="#ea995f"] ;
30 -> 31 ;
32 [label=<5Y_val &le; -0.489<br/>squared_error = 0.0<br/>samples = 3<br/>value = 0.358>, fillcolor="#e99558"] ;
30 -> 32 ;
33 [label=<squared_error = 0.0<br/>samples = 1<br/>value = 0.372>, fillcolor="#e99456"] ;
32 -> 33 ;
34 [label=<9M_Mom &le; 0.222<br/>squared_error = 0.0<br/>samples = 2<br/>value = 0.352>, fillcolor="#e99659"] ;
32 -> 34 ;
35 [label=<squared_error = 0.0<br/>samples = 1<br/>value = 0.345>, fillcolor="#e9965a"] ;
34 -> 35 ;
36 [label=<squared_error = -0.0<br/>samples = 1<br/>value = 0.358>, fillcolor="#e99558"] ;
34 -> 36 ;
37 [label=<9M_Mom &le; -0.203<br/>squared_error = 0.024<br/>samples = 639<br/>value = 0.063>, fillcolor="#efb185"] ;
1 -> 37 ;
38 [label=<5Y_val &le; -0.249<br/>squared_error = 0.007<br/>samples = 19<br/>value = 0.18>, fillcolor="#eda673"] ;
37 -> 38 ;
39 [label=<5Y_val &le; -0.255<br/>squared_error = 0.0<br/>samples = 3<br/>value = 0.272>, fillcolor="#eb9d65"] ;
38 -> 39 ;
40 [label=<5Y_val &le; -0.286<br/>squared_error = 0.0<br/>samples = 2<br/>value = 0.276>, fillcolor="#eb9d65"] ;
39 -> 40 ;
41 [label=<squared_error = 0.0<br/>samples = 1<br/>value = 0.278>, fillcolor="#eb9d65"] ;
40 -> 41 ;
42 [label=<squared_error = 0.0<br/>samples = 1<br/>value = 0.274>, fillcolor="#eb9d65"] ;
40 -> 42 ;
43 [label=<squared_error = -0.0<br/>samples = 1<br/>value = 0.265>, fillcolor="#eb9e66"] ;
39 -> 43 ;
44 [label=<9M_Mom &le; -0.226<br/>squared_error = 0.006<br/>samples = 16<br/>value = 0.163>, fillcolor="#eda876"] ;
38 -> 44 ;
45 [label=<9M_Mom &le; -0.234<br/>squared_error = 0.005<br/>samples = 12<br/>value = 0.146>, fillcolor="#eda978"] ;
44 -> 45 ;
46 [label=<5Y_val &le; 0.536<br/>squared_error = 0.003<br/>samples = 11<br/>value = 0.16>, fillcolor="#eda876"] ;
45 -> 46 ;
47 [label=<5Y_val &le; 0.309<br/>squared_error = 0.003<br/>samples = 7<br/>value = 0.187>, fillcolor="#eda572"] ;
46 -> 47 ;
48 [label=<5Y_val &le; 0.064<br/>squared_error = 0.002<br/>samples = 5<br/>value = 0.165>, fillcolor="#eda775"] ;
47 -> 48 ;
49 [label=<5Y_val &le; -0.087<br/>squared_error = 0.002<br/>samples = 4<br/>value = 0.177>, fillcolor="#eda674"] ;
48 -> 49 ;
50 [label=<9M_Mom &le; -0.258<br/>squared_error = 0.001<br/>samples = 3<br/>value = 0.162>, fillcolor="#eda876"] ;
49 -> 50 ;
51 [label=<squared_error = 0.0<br/>samples = 1<br/>value = 0.112>, fillcolor="#eead7d"] ;
50 -> 51 ;
52 [label=<9M_Mom &le; -0.241<br/>squared_error = 0.0<br/>samples = 2<br/>value = 0.186>, fillcolor="#eda672"] ;
50 -> 52 ;
53 [label=<squared_error = 0.0<br/>samples = 1<br/>value = 0.186>, fillcolor="#eda672"] ;
52 -> 53 ;
54 [label=<squared_error = 0.0<br/>samples = 1<br/>value = 0.186>, fillcolor="#eda572"] ;
52 -> 54 ;
55 [label=<squared_error = -0.0<br/>samples = 1<br/>value = 0.224>, fillcolor="#eca26d"] ;
49 -> 55 ;
56 [label=<squared_error = 0.0<br/>samples = 1<br/>value = 0.118>, fillcolor="#eeac7d"] ;
48 -> 56 ;
57 [label=<9M_Mom &le; -0.43<br/>squared_error = 0.0<br/>samples = 2<br/>value = 0.24>, fillcolor="#eba06a"] ;
47 -> 57 ;
58 [label=<squared_error = 0.0<br/>samples = 1<br/>value = 0.256>, fillcolor="#eb9f68"] ;
57 -> 58 ;
59 [label=<squared_error = 0.0<br/>samples = 1<br/>value = 0.225>, fillcolor="#eca26d"] ;
57 -> 59 ;
60 [label=<5Y_val &le; 0.736<br/>squared_error = 0.001<br/>samples = 4<br/>value = 0.113>, fillcolor="#eeac7d"] ;
46 -> 60 ;
61 [label=<5Y_val &le; 0.618<br/>squared_error = 0.0<br/>samples = 2<br/>value = 0.138>, fillcolor="#edaa7a"] ;
60 -> 61 ;
62 [label=<squared_error = 0.0<br/>samples = 1<br/>value = 0.14>, fillcolor="#edaa79"] ;
61 -> 62 ;
63 [label=<squared_error = 0.0<br/>samples = 1<br/>value = 0.136>, fillcolor="#eeaa7a"] ;
61 -> 63 ;
64 [label=<9M_Mom &le; -0.305<br/>squared_error = 0.001<br/>samples = 2<br/>value = 0.088>, fillcolor="#eeaf81"] ;
60 -> 64 ;
65 [label=<squared_error = 0.0<br/>samples = 1<br/>value = 0.063>, fillcolor="#efb185"] ;
64 -> 65 ;
66 [label=<squared_error = -0.0<br/>samples = 1<br/>value = 0.113>, fillcolor="#eeac7d"] ;
64 -> 66 ;
67 [label=<squared_error = 0.0<br/>samples = 1<br/>value = -0.013>, fillcolor="#f0b990"] ;
45 -> 67 ;
68 [label=<9M_Mom &le; -0.21<br/>squared_error = 0.006<br/>samples = 4<br/>value = 0.215>, fillcolor="#eca36e"] ;
44 -> 68 ;
69 [label=<5Y_val &le; 0.095<br/>squared_error = 0.001<br/>samples = 2<br/>value = 0.279>, fillcolor="#eb9d64"] ;
68 -> 69 ;
70 [label=<squared_error = 0.0<br/>samples = 1<br/>value = 0.316>, fillcolor="#ea995f"] ;
69 -> 70 ;
71 [label=<squared_error = 0.0<br/>samples = 1<br/>value = 0.242>, fillcolor="#eba06a"] ;
69 -> 71 ;
72 [label=<5Y_val &le; 0.247<br/>squared_error = 0.002<br/>samples = 2<br/>value = 0.151>, fillcolor="#eda978"] ;
68 -> 72 ;
73 [label=<squared_error = 0.0<br/>samples = 1<br/>value = 0.102>, fillcolor="#eeae7f"] ;
72 -> 73 ;
74 [label=<squared_error = 0.0<br/>samples = 1<br/>value = 0.201>, fillcolor="#eca470"] ;
72 -> 74 ;
75 [label=<5Y_val &le; -0.28<br/>squared_error = 0.024<br/>samples = 620<br/>value = 0.059>, fillcolor="#efb286"] ;
37 -> 75 ;
76 [label=<5Y_val &le; -0.356<br/>squared_error = 0.033<br/>samples = 12<br/>value = -0.074>, fillcolor="#f2be9a"] ;
75 -> 76 ;
77 [label=<9M_Mom &le; -0.009<br/>squared_error = 0.041<br/>samples = 4<br/>value = 0.121>, fillcolor="#eeac7c"] ;
76 -> 77 ;
78 [label=<9M_Mom &le; -0.046<br/>squared_error = 0.004<br/>samples = 2<br/>value = -0.075>, fillcolor="#f2bf9a"] ;
77 -> 78 ;
79 [label=<squared_error = 0.0<br/>samples = 1<br/>value = -0.008>, fillcolor="#f0b890"] ;
78 -> 79 ;
80 [label=<squared_error = 0.0<br/>samples = 1<br/>value = -0.142>, fillcolor="#f3c5a4"] ;
78 -> 80 ;
81 [label=<5Y_val &le; -0.367<br/>squared_error = 0.0<br/>samples = 2<br/>value = 0.317>, fillcolor="#ea995f"] ;
77 -> 81 ;
82 [label=<squared_error = 0.0<br/>samples = 1<br/>value = 0.323>, fillcolor="#ea985e"] ;
81 -> 82 ;
83 [label=<squared_error = -0.0<br/>samples = 1<br/>value = 0.311>, fillcolor="#ea995f"] ;
81 -> 83 ;
84 [label=<9M_Mom &le; -0.105<br/>squared_error = 0.001<br/>samples = 8<br/>value = -0.171>, fillcolor="#f4c8a8"] ;
76 -> 84 ;
85 [label=<5Y_val &le; -0.323<br/>squared_error = 0.0<br/>samples = 2<br/>value = -0.136>, fillcolor="#f3c4a3"] ;
84 -> 85 ;
86 [label=<squared_error = 0.0<br/>samples = 1<br/>value = -0.137>, fillcolor="#f3c5a3"] ;
85 -> 86 ;
87 [label=<squared_error = -0.0<br/>samples = 1<br/>value = -0.134>, fillcolor="#f3c4a3"] ;
85 -> 87 ;
88 [label=<5Y_val &le; -0.321<br/>squared_error = 0.001<br/>samples = 6<br/>value = -0.183>, fillcolor="#f4c9aa"] ;
84 -> 88 ;
89 [label=<9M_Mom &le; -0.016<br/>squared_error = 0.0<br/>samples = 5<br/>value = -0.191>, fillcolor="#f4caab"] ;
88 -> 89 ;
90 [label=<5Y_val &le; -0.33<br/>squared_error = 0.0<br/>samples = 4<br/>value = -0.185>, fillcolor="#f4c9aa"] ;
89 -> 90 ;
91 [label=<5Y_val &le; -0.34<br/>squared_error = 0.0<br/>samples = 3<br/>value = -0.181>, fillcolor="#f4c9aa"] ;
90 -> 91 ;
92 [label=<9M_Mom &le; -0.046<br/>squared_error = 0.0<br/>samples = 2<br/>value = -0.186>, fillcolor="#f4c9aa"] ;
91 -> 92 ;
93 [label=<squared_error = 0.0<br/>samples = 1<br/>value = -0.194>, fillcolor="#f4caac"] ;
92 -> 93 ;
94 [label=<squared_error = 0.0<br/>samples = 1<br/>value = -0.178>, fillcolor="#f4c8a9"] ;
92 -> 94 ;
95 [label=<squared_error = 0.0<br/>samples = 1<br/>value = -0.171>, fillcolor="#f4c8a8"] ;
91 -> 95 ;
96 [label=<squared_error = -0.0<br/>samples = 1<br/>value = -0.195>, fillcolor="#f4caac"] ;
90 -> 96 ;
97 [label=<squared_error = -0.0<br/>samples = 1<br/>value = -0.218>, fillcolor="#f5ccaf"] ;
89 -> 97 ;
98 [label=<squared_error = -0.0<br/>samples = 1<br/>value = -0.144>, fillcolor="#f3c5a4"] ;
88 -> 98 ;
99 [label=<5Y_val &le; 1.153<br/>squared_error = 0.024<br/>samples = 608<br/>value = 0.062>, fillcolor="#efb185"] ;
75 -> 99 ;
100 [label=<9M_Mom &le; -0.086<br/>squared_error = 0.023<br/>samples = 592<br/>value = 0.064>, fillcolor="#efb185"] ;
99 -> 100 ;
101 [label=<5Y_val &le; 0.115<br/>squared_error = 0.027<br/>samples = 87<br/>value = 0.1>, fillcolor="#eeae7f"] ;
100 -> 101 ;
102 [label=<9M_Mom &le; -0.175<br/>squared_error = 0.033<br/>samples = 34<br/>value = 0.011>, fillcolor="#f0b68d"] ;
101 -> 102 ;
103 [label=<5Y_val &le; -0.078<br/>squared_error = 0.009<br/>samples = 4<br/>value = 0.149>, fillcolor="#eda978"] ;
102 -> 103 ;
104 [label=<5Y_val &le; -0.109<br/>squared_error = 0.001<br/>samples = 2<br/>value = 0.233>, fillcolor="#eca16b"] ;
103 -> 104 ;
105 [label=<squared_error = 0.0<br/>samples = 1<br/>value = 0.264>, fillcolor="#eb9e67"] ;
104 -> 105 ;
106 [label=<squared_error = 0.0<br/>samples = 1<br/>value = 0.203>, fillcolor="#eca470"] ;
104 -> 106 ;
107 [label=<5Y_val &le; -0.05<br/>squared_error = 0.003<br/>samples = 2<br/>value = 0.065>, fillcolor="#efb185"] ;
103 -> 107 ;
108 [label=<squared_error = 0.0<br/>samples = 1<br/>value = 0.01>, fillcolor="#f0b68d"] ;
107 -> 108 ;
109 [label=<squared_error = 0.0<br/>samples = 1<br/>value = 0.12>, fillcolor="#eeac7c"] ;
107 -> 109 ;
110 [label=<9M_Mom &le; -0.095<br/>squared_error = 0.033<br/>samples = 30<br/>value = -0.007>, fillcolor="#f0b88f"] ;
102 -> 110 ;
111 [label=<9M_Mom &le; -0.112<br/>squared_error = 0.035<br/>samples = 26<br/>value = -0.025>, fillcolor="#f1ba92"] ;
110 -> 111 ;
112 [label=<9M_Mom &le; -0.123<br/>squared_error = 0.036<br/>samples = 19<br/>value = 0.014>, fillcolor="#f0b68c"] ;
111 -> 112 ;
113 [label=<9M_Mom &le; -0.128<br/>squared_error = 0.028<br/>samples = 14<br/>value = -0.04>, fillcolor="#f1bb94"] ;
112 -> 113 ;
114 [label=<5Y_val &le; -0.105<br/>squared_error = 0.022<br/>samples = 12<br/>value = -0.004>, fillcolor="#f0b88f"] ;
113 -> 114 ;
115 [label=<9M_Mom &le; -0.152<br/>squared_error = 0.02<br/>samples = 4<br/>value = -0.126>, fillcolor="#f3c3a1"] ;
114 -> 115 ;
116 [label=<9M_Mom &le; -0.164<br/>squared_error = 0.001<br/>samples = 2<br/>value = 0.005>, fillcolor="#f0b78e"] ;
115 -> 116 ;
117 [label=<squared_error = 0.0<br/>samples = 1<br/>value = -0.034>, fillcolor="#f1bb94"] ;
116 -> 117 ;
118 [label=<squared_error = 0.0<br/>samples = 1<br/>value = 0.043>, fillcolor="#efb388"] ;
116 -> 118 ;
119 [label=<5Y_val &le; -0.163<br/>squared_error = 0.004<br/>samples = 2<br/>value = -0.256>, fillcolor="#f5d0b5"] ;
115 -> 119 ;
120 [label=<squared_error = 0.0<br/>samples = 1<br/>value = -0.197>, fillcolor="#f4caac"] ;
119 -> 120 ;
121 [label=<squared_error = -0.0<br/>samples = 1<br/>value = -0.316>, fillcolor="#f6d6be"] ;
119 -> 121 ;
122 [label=<5Y_val &le; -0.087<br/>squared_error = 0.012<br/>samples = 8<br/>value = 0.057>, fillcolor="#efb286"] ;
114 -> 122 ;
123 [label=<squared_error = 0.0<br/>samples = 1<br/>value = 0.27>, fillcolor="#eb9d66"] ;
122 -> 123 ;
124 [label=<9M_Mom &le; -0.133<br/>squared_error = 0.007<br/>samples = 7<br/>value = 0.026>, fillcolor="#f0b58a"] ;
122 -> 124 ;
125 [label=<9M_Mom &le; -0.145<br/>squared_error = 0.002<br/>samples = 6<br/>value = -0.002>, fillcolor="#f0b88f"] ;
124 -> 125 ;
126 [label=<9M_Mom &le; -0.165<br/>squared_error = 0.001<br/>samples = 3<br/>value = -0.033>, fillcolor="#f1bb93"] ;
125 -> 126 ;
127 [label=<squared_error = 0.0<br/>samples = 1<br/>value = 0.009>, fillcolor="#f0b78d"] ;
126 -> 127 ;
128 [label=<9M_Mom &le; -0.153<br/>squared_error = 0.0<br/>samples = 2<br/>value = -0.053>, fillcolor="#f1bc96"] ;
126 -> 128 ;
129 [label=<squared_error = 0.0<br/>samples = 1<br/>value = -0.062>, fillcolor="#f1bd98"] ;
128 -> 129 ;
130 [label=<squared_error = 0.0<br/>samples = 1<br/>value = -0.044>, fillcolor="#f1bc95"] ;
128 -> 130 ;
131 [label=<5Y_val &le; -0.022<br/>squared_error = 0.002<br/>samples = 3<br/>value = 0.03>, fillcolor="#f0b58a"] ;
125 -> 131 ;
132 [label=<squared_error = 0.0<br/>samples = 1<br/>value = -0.025>, fillcolor="#f1ba92"] ;
131 -> 132 ;
133 [label=<9M_Mom &le; -0.14<br/>squared_error = 0.0<br/>samples = 2<br/>value = 0.057>, fillcolor="#efb286"] ;
131 -> 133 ;
134 [label=<squared_error = 0.0<br/>samples = 1<br/>value = 0.036>, fillcolor="#f0b489"] ;
133 -> 134 ;
135 [label=<squared_error = -0.0<br/>samples = 1<br/>value = 0.078>, fillcolor="#efb083"] ;
133 -> 135 ;
136 [label=<squared_error = 0.0<br/>samples = 1<br/>value = 0.195>, fillcolor="#eca571"] ;
124 -> 136 ;
137 [label=<5Y_val &le; -0.121<br/>squared_error = 0.01<br/>samples = 2<br/>value = -0.253>, fillcolor="#f5d0b5"] ;
113 -> 137 ;
138 [label=<squared_error = 0.0<br/>samples = 1<br/>value = -0.154>, fillcolor="#f3c6a6"] ;
137 -> 138 ;
139 [label=<squared_error = 0.0<br/>samples = 1<br/>value = -0.353>, fillcolor="#f7d9c4"] ;
137 -> 139 ;
140 [label=<9M_Mom &le; -0.12<br/>squared_error = 0.027<br/>samples = 5<br/>value = 0.163>, fillcolor="#eda876"] ;
112 -> 140 ;
141 [label=<squared_error = 0.0<br/>samples = 1<br/>value = 0.417>, fillcolor="#e88f4f"] ;
140 -> 141 ;
142 [label=<5Y_val &le; 0.076<br/>squared_error = 0.014<br/>samples = 4<br/>value = 0.1>, fillcolor="#eeae7f"] ;
140 -> 142 ;
143 [label=<9M_Mom &le; -0.116<br/>squared_error = 0.003<br/>samples = 3<br/>value = 0.161>, fillcolor="#eda876"] ;
142 -> 143 ;
144 [label=<squared_error = 0.0<br/>samples = 1<br/>value = 0.11>, fillcolor="#eead7e"] ;
143 -> 144 ;
145 [label=<9M_Mom &le; -0.112<br/>squared_error = 0.003<br/>samples = 2<br/>value = 0.187>, fillcolor="#eda572"] ;
143 -> 145 ;
146 [label=<squared_error = 0.0<br/>samples = 1<br/>value = 0.243>, fillcolor="#eba06a"] ;
145 -> 146 ;
147 [label=<squared_error = -0.0<br/>samples = 1<br/>value = 0.13>, fillcolor="#eeab7b"] ;
145 -> 147 ;
148 [label=<squared_error = 0.0<br/>samples = 1<br/>value = -0.085>, fillcolor="#f2bf9b"] ;
142 -> 148 ;
149 [label=<5Y_val &le; -0.101<br/>squared_error = 0.018<br/>samples = 7<br/>value = -0.13>, fillcolor="#f3c4a2"] ;
111 -> 149 ;
150 [label=<5Y_val &le; -0.15<br/>squared_error = 0.001<br/>samples = 2<br/>value = 0.035>, fillcolor="#f0b489"] ;
149 -> 150 ;
151 [label=<squared_error = 0.0<br/>samples = 1<br/>value = 0.009>, fillcolor="#f0b78d"] ;
150 -> 151 ;
152 [label=<squared_error = 0.0<br/>samples = 1<br/>value = 0.06>, fillcolor="#efb285"] ;
150 -> 152 ;
153 [label=<9M_Mom &le; -0.105<br/>squared_error = 0.009<br/>samples = 5<br/>value = -0.196>, fillcolor="#f4caac"] ;
149 -> 153 ;
154 [label=<5Y_val &le; 0.079<br/>squared_error = 0.011<br/>samples = 2<br/>value = -0.265>, fillcolor="#f5d1b6"] ;
153 -> 154 ;
155 [label=<squared_error = 0.0<br/>samples = 1<br/>value = -0.368>, fillcolor="#f8dbc6"] ;
154 -> 155 ;
156 [label=<squared_error = 0.0<br/>samples = 1<br/>value = -0.163>, fillcolor="#f3c7a7"] ;
154 -> 156 ;
157 [label=<9M_Mom &le; -0.098<br/>squared_error = 0.003<br/>samples = 3<br/>value = -0.149>, fillcolor="#f3c6a5"] ;
153 -> 157 ;
158 [label=<9M_Mom &le; -0.101<br/>squared_error = 0.0<br/>samples = 2<br/>value = -0.11>, fillcolor="#f2c29f"] ;
157 -> 158 ;
159 [label=<squared_error = 0.0<br/>samples = 1<br/>value = -0.101>, fillcolor="#f2c19e"] ;
158 -> 159 ;
160 [label=<squared_error = -0.0<br/>samples = 1<br/>value = -0.12>, fillcolor="#f3c3a1"] ;
158 -> 160 ;
161 [label=<squared_error = -0.0<br/>samples = 1<br/>value = -0.227>, fillcolor="#f5cdb1"] ;
157 -> 161 ;
162 [label=<9M_Mom &le; -0.089<br/>squared_error = 0.006<br/>samples = 4<br/>value = 0.109>, fillcolor="#eead7e"] ;
110 -> 162 ;
163 [label=<5Y_val &le; -0.067<br/>squared_error = 0.003<br/>samples = 3<br/>value = 0.072>, fillcolor="#efb084"] ;
162 -> 163 ;
164 [label=<5Y_val &le; -0.226<br/>squared_error = 0.0<br/>samples = 2<br/>value = 0.107>, fillcolor="#eead7e"] ;
163 -> 164 ;
165 [label=<squared_error = 0.0<br/>samples = 1<br/>value = 0.113>, fillcolor="#eead7d"] ;
164 -> 165 ;
166 [label=<squared_error = 0.0<br/>samples = 1<br/>value = 0.101>, fillcolor="#eeae7f"] ;
164 -> 166 ;
167 [label=<squared_error = 0.0<br/>samples = 1<br/>value = 0.001>, fillcolor="#f0b78e"] ;
163 -> 167 ;
168 [label=<squared_error = -0.0<br/>samples = 1<br/>value = 0.223>, fillcolor="#eca26d"] ;
162 -> 168 ;
169 [label=<9M_Mom &le; -0.193<br/>squared_error = 0.015<br/>samples = 53<br/>value = 0.157>, fillcolor="#eda877"] ;
101 -> 169 ;
170 [label=<5Y_val &le; 0.633<br/>squared_error = 0.005<br/>samples = 3<br/>value = -0.058>, fillcolor="#f1bd97"] ;
169 -> 170 ;
171 [label=<squared_error = 0.0<br/>samples = 1<br/>value = 0.039>, fillcolor="#efb489"] ;
170 -> 171 ;
172 [label=<9M_Mom &le; -0.197<br/>squared_error = 0.0<br/>samples = 2<br/>value = -0.107>, fillcolor="#f2c29f"] ;
170 -> 172 ;
173 [label=<squared_error = 0.0<br/>samples = 1<br/>value = -0.117>, fillcolor="#f3c3a0"] ;
172 -> 173 ;
174 [label=<squared_error = 0.0<br/>samples = 1<br/>value = -0.097>, fillcolor="#f2c19d"] ;
172 -> 174 ;
175 [label=<5Y_val &le; 0.775<br/>squared_error = 0.013<br/>samples = 50<br/>value = 0.169>, fillcolor="#eda775"] ;
169 -> 175 ;
176 [label=<9M_Mom &le; -0.115<br/>squared_error = 0.011<br/>samples = 47<br/>value = 0.18>, fillcolor="#eda673"] ;
175 -> 176 ;
177 [label=<5Y_val &le; 0.161<br/>squared_error = 0.014<br/>samples = 27<br/>value = 0.151>, fillcolor="#eda978"] ;
176 -> 177 ;
178 [label=<5Y_val &le; 0.133<br/>squared_error = 0.003<br/>samples = 6<br/>value = 0.234>, fillcolor="#eca16b"] ;
177 -> 178 ;
179 [label=<5Y_val &le; 0.13<br/>squared_error = 0.0<br/>samples = 2<br/>value = 0.175>, fillcolor="#eda774"] ;
178 -> 179 ;
180 [label=<squared_error = 0.0<br/>samples = 1<br/>value = 0.156>, fillcolor="#eda877"] ;
179 -> 180 ;
181 [label=<squared_error = 0.0<br/>samples = 1<br/>value = 0.194>, fillcolor="#eca571"] ;
179 -> 181 ;
182 [label=<9M_Mom &le; -0.147<br/>squared_error = 0.001<br/>samples = 4<br/>value = 0.263>, fillcolor="#eb9e67"] ;
178 -> 182 ;
183 [label=<9M_Mom &le; -0.159<br/>squared_error = 0.0<br/>samples = 3<br/>value = 0.247>, fillcolor="#eba069"] ;
182 -> 183 ;
184 [label=<9M_Mom &le; -0.176<br/>squared_error = 0.0<br/>samples = 2<br/>value = 0.235>, fillcolor="#eca16b"] ;
183 -> 184 ;
185 [label=<squared_error = 0.0<br/>samples = 1<br/>value = 0.237>, fillcolor="#eca16b"] ;
184 -> 185 ;
186 [label=<squared_error = -0.0<br/>samples = 1<br/>value = 0.234>, fillcolor="#eca16b"] ;
184 -> 186 ;
187 [label=<squared_error = 0.0<br/>samples = 1<br/>value = 0.269>, fillcolor="#eb9e66"] ;
183 -> 187 ;
188 [label=<squared_error = 0.0<br/>samples = 1<br/>value = 0.312>, fillcolor="#ea995f"] ;
182 -> 188 ;
189 [label=<9M_Mom &le; -0.12<br/>squared_error = 0.014<br/>samples = 21<br/>value = 0.128>, fillcolor="#eeab7b"] ;
177 -> 189 ;
190 [label=<9M_Mom &le; -0.121<br/>squared_error = 0.011<br/>samples = 20<br/>value = 0.142>, fillcolor="#edaa79"] ;
189 -> 190 ;
191 [label=<9M_Mom &le; -0.123<br/>squared_error = 0.009<br/>samples = 19<br/>value = 0.132>, fillcolor="#eeab7a"] ;
190 -> 191 ;
192 [label=<9M_Mom &le; -0.162<br/>squared_error = 0.008<br/>samples = 18<br/>value = 0.143>, fillcolor="#edaa79"] ;
191 -> 192 ;
193 [label=<9M_Mom &le; -0.179<br/>squared_error = 0.002<br/>samples = 4<br/>value = 0.204>, fillcolor="#eca470"] ;
192 -> 193 ;
194 [label=<5Y_val &le; 0.626<br/>squared_error = 0.0<br/>samples = 2<br/>value = 0.171>, fillcolor="#eda775"] ;
193 -> 194 ;
195 [label=<squared_error = 0.0<br/>samples = 1<br/>value = 0.17>, fillcolor="#eda775"] ;
194 -> 195 ;
196 [label=<squared_error = 0.0<br/>samples = 1<br/>value = 0.173>, fillcolor="#eda774"] ;
194 -> 196 ;
197 [label=<5Y_val &le; 0.342<br/>squared_error = 0.001<br/>samples = 2<br/>value = 0.237>, fillcolor="#eca16b"] ;
193 -> 197 ;
198 [label=<squared_error = 0.0<br/>samples = 1<br/>value = 0.204>, fillcolor="#eca470"] ;
197 -> 198 ;
199 [label=<squared_error = 0.0<br/>samples = 1<br/>value = 0.27>, fillcolor="#eb9d66"] ;
197 -> 199 ;
200 [label=<9M_Mom &le; -0.153<br/>squared_error = 0.008<br/>samples = 14<br/>value = 0.125>, fillcolor="#eeab7c"] ;
192 -> 200 ;
201 [label=<squared_error = 0.0<br/>samples = 1<br/>value = 0.0>, fillcolor="#f0b78e"] ;
200 -> 201 ;
202 [label=<5Y_val &le; 0.204<br/>squared_error = 0.008<br/>samples = 13<br/>value = 0.135>, fillcolor="#eeaa7a"] ;
200 -> 202 ;
203 [label=<9M_Mom &le; -0.131<br/>squared_error = 0.009<br/>samples = 2<br/>value = 0.065>, fillcolor="#efb185"] ;
202 -> 203 ;
204 [label=<squared_error = 0.0<br/>samples = 1<br/>value = 0.158>, fillcolor="#eda877"] ;
203 -> 204 ;
205 [label=<squared_error = -0.0<br/>samples = 1<br/>value = -0.027>, fillcolor="#f1ba93"] ;
203 -> 205 ;
206 [label=<9M_Mom &le; -0.151<br/>squared_error = 0.006<br/>samples = 11<br/>value = 0.147>, fillcolor="#eda978"] ;
202 -> 206 ;
207 [label=<9M_Mom &le; -0.151<br/>squared_error = 0.004<br/>samples = 3<br/>value = 0.103>, fillcolor="#eead7f"] ;
206 -> 207 ;
208 [label=<9M_Mom &le; -0.152<br/>squared_error = 0.001<br/>samples = 2<br/>value = 0.144>, fillcolor="#edaa79"] ;
207 -> 208 ;
209 [label=<squared_error = 0.0<br/>samples = 1<br/>value = 0.117>, fillcolor="#eeac7d"] ;
208 -> 209 ;
210 [label=<squared_error = -0.0<br/>samples = 1<br/>value = 0.172>, fillcolor="#eda775"] ;
208 -> 210 ;
211 [label=<squared_error = 0.0<br/>samples = 1<br/>value = 0.022>, fillcolor="#f0b58b"] ;
207 -> 211 ;
212 [label=<5Y_val &le; 0.522<br/>squared_error = 0.006<br/>samples = 8<br/>value = 0.164>, fillcolor="#eda876"] ;
206 -> 212 ;
213 [label=<5Y_val &le; 0.362<br/>squared_error = 0.006<br/>samples = 3<br/>value = 0.115>, fillcolor="#eeac7d"] ;
212 -> 213 ;
214 [label=<5Y_val &le; 0.247<br/>squared_error = 0.0<br/>samples = 2<br/>value = 0.168>, fillcolor="#eda775"] ;
213 -> 214 ;
215 [label=<squared_error = 0.0<br/>samples = 1<br/>value = 0.164>, fillcolor="#eda876"] ;
214 -> 215 ;
216 [label=<squared_error = 0.0<br/>samples = 1<br/>value = 0.172>, fillcolor="#eda775"] ;
214 -> 216 ;
217 [label=<squared_error = -0.0<br/>samples = 1<br/>value = 0.01>, fillcolor="#f0b68d"] ;
213 -> 217 ;
218 [label=<5Y_val &le; 0.602<br/>squared_error = 0.005<br/>samples = 5<br/>value = 0.193>, fillcolor="#eca571"] ;
212 -> 218 ;
219 [label=<squared_error = 0.0<br/>samples = 1<br/>value = 0.305>, fillcolor="#ea9a60"] ;
218 -> 219 ;
220 [label=<5Y_val &le; 0.687<br/>squared_error = 0.002<br/>samples = 4<br/>value = 0.165>, fillcolor="#eda775"] ;
218 -> 220 ;
221 [label=<9M_Mom &le; -0.142<br/>squared_error = 0.002<br/>samples = 2<br/>value = 0.194>, fillcolor="#eca571"] ;
220 -> 221 ;
222 [label=<squared_error = 0.0<br/>samples = 1<br/>value = 0.151>, fillcolor="#eda978"] ;
221 -> 222 ;
223 [label=<squared_error = 0.0<br/>samples = 1<br/>value = 0.237>, fillcolor="#eca16b"] ;
221 -> 223 ;
224 [label=<9M_Mom &le; -0.14<br/>squared_error = 0.0<br/>samples = 2<br/>value = 0.137>, fillcolor="#eeaa7a"] ;
220 -> 224 ;
225 [label=<squared_error = 0.0<br/>samples = 1<br/>value = 0.13>, fillcolor="#eeab7b"] ;
224 -> 225 ;
226 [label=<squared_error = -0.0<br/>samples = 1<br/>value = 0.144>, fillcolor="#edaa79"] ;
224 -> 226 ;
227 [label=<squared_error = -0.0<br/>samples = 1<br/>value = -0.057>, fillcolor="#f1bd97"] ;
191 -> 227 ;
228 [label=<squared_error = -0.0<br/>samples = 1<br/>value = 0.325>, fillcolor="#ea985d"] ;
190 -> 228 ;
229 [label=<squared_error = -0.0<br/>samples = 1<br/>value = -0.158>, fillcolor="#f3c7a6"] ;
189 -> 229 ;
230 [label=<9M_Mom &le; -0.09<br/>squared_error = 0.005<br/>samples = 20<br/>value = 0.22>, fillcolor="#eca26d"] ;
176 -> 230 ;
231 [label=<9M_Mom &le; -0.11<br/>squared_error = 0.004<br/>samples = 18<br/>value = 0.208>, fillcolor="#eca36f"] ;
230 -> 231 ;
232 [label=<9M_Mom &le; -0.111<br/>squared_error = 0.001<br/>samples = 3<br/>value = 0.3>, fillcolor="#ea9b61"] ;
231 -> 232 ;
233 [label=<9M_Mom &le; -0.111<br/>squared_error = 0.0<br/>samples = 2<br/>value = 0.278>, fillcolor="#eb9d65"] ;
232 -> 233 ;
234 [label=<squared_error = 0.0<br/>samples = 1<br/>value = 0.28>, fillcolor="#eb9c64"] ;
233 -> 234 ;
235 [label=<squared_error = -0.0<br/>samples = 1<br/>value = 0.275>, fillcolor="#eb9d65"] ;
233 -> 235 ;
236 [label=<squared_error = 0.0<br/>samples = 1<br/>value = 0.345>, fillcolor="#e9965a"] ;
232 -> 236 ;
237 [label=<9M_Mom &le; -0.093<br/>squared_error = 0.003<br/>samples = 15<br/>value = 0.19>, fillcolor="#eca572"] ;
231 -> 237 ;
238 [label=<5Y_val &le; 0.239<br/>squared_error = 0.001<br/>samples = 9<br/>value = 0.165>, fillcolor="#eda876"] ;
237 -> 238 ;
239 [label=<9M_Mom &le; -0.103<br/>squared_error = 0.001<br/>samples = 4<br/>value = 0.182>, fillcolor="#eda673"] ;
238 -> 239 ;
240 [label=<squared_error = 0.0<br/>samples = 1<br/>value = 0.221>, fillcolor="#eca26d"] ;
239 -> 240 ;
241 [label=<5Y_val &le; 0.16<br/>squared_error = 0.001<br/>samples = 3<br/>value = 0.17>, fillcolor="#eda775"] ;
239 -> 241 ;
242 [label=<9M_Mom &le; -0.099<br/>squared_error = 0.001<br/>samples = 2<br/>value = 0.16>, fillcolor="#eda876"] ;
241 -> 242 ;
243 [label=<squared_error = 0.0<br/>samples = 1<br/>value = 0.183>, fillcolor="#eda673"] ;
242 -> 243 ;
244 [label=<squared_error = -0.0<br/>samples = 1<br/>value = 0.138>, fillcolor="#edaa7a"] ;
242 -> 244 ;
245 [label=<squared_error = 0.0<br/>samples = 1<br/>value = 0.188>, fillcolor="#eca572"] ;
241 -> 245 ;
246 [label=<5Y_val &le; 0.343<br/>squared_error = 0.0<br/>samples = 5<br/>value = 0.151>, fillcolor="#eda978"] ;
238 -> 246 ;
247 [label=<5Y_val &le; 0.253<br/>squared_error = 0.0<br/>samples = 2<br/>value = 0.132>, fillcolor="#eeab7b"] ;
246 -> 247 ;
248 [label=<squared_error = 0.0<br/>samples = 1<br/>value = 0.125>, fillcolor="#eeab7c"] ;
247 -> 248 ;
249 [label=<squared_error = 0.0<br/>samples = 1<br/>value = 0.138>, fillcolor="#edaa7a"] ;
247 -> 249 ;
250 [label=<5Y_val &le; 0.462<br/>squared_error = 0.0<br/>samples = 3<br/>value = 0.164>, fillcolor="#eda876"] ;
246 -> 250 ;
251 [label=<squared_error = 0.0<br/>samples = 1<br/>value = 0.183>, fillcolor="#eda673"] ;
250 -> 251 ;
252 [label=<9M_Mom &le; -0.109<br/>squared_error = 0.0<br/>samples = 2<br/>value = 0.154>, fillcolor="#eda977"] ;
250 -> 252 ;
253 [label=<squared_error = 0.0<br/>samples = 1<br/>value = 0.162>, fillcolor="#eda876"] ;
252 -> 253 ;
254 [label=<squared_error = 0.0<br/>samples = 1<br/>value = 0.146>, fillcolor="#eda978"] ;
252 -> 254 ;
255 [label=<9M_Mom &le; -0.093<br/>squared_error = 0.004<br/>samples = 6<br/>value = 0.227>, fillcolor="#eca26c"] ;
237 -> 255 ;
256 [label=<5Y_val &le; 0.635<br/>squared_error = 0.0<br/>samples = 2<br/>value = 0.302>, fillcolor="#ea9a61"] ;
255 -> 256 ;
257 [label=<squared_error = 0.0<br/>samples = 1<br/>value = 0.323>, fillcolor="#ea985e"] ;
256 -> 257 ;
258 [label=<squared_error = 0.0<br/>samples = 1<br/>value = 0.282>, fillcolor="#eb9c64"] ;
256 -> 258 ;
259 [label=<9M_Mom &le; -0.091<br/>squared_error = 0.001<br/>samples = 4<br/>value = 0.189>, fillcolor="#eca572"] ;
255 -> 259 ;
260 [label=<5Y_val &le; 0.519<br/>squared_error = 0.001<br/>samples = 2<br/>value = 0.21>, fillcolor="#eca36f"] ;
259 -> 260 ;
261 [label=<squared_error = 0.0<br/>samples = 1<br/>value = 0.246>, fillcolor="#eba069"] ;
260 -> 261 ;
262 [label=<squared_error = -0.0<br/>samples = 1<br/>value = 0.173>, fillcolor="#eda774"] ;
260 -> 262 ;
263 [label=<9M_Mom &le; -0.091<br/>squared_error = 0.0<br/>samples = 2<br/>value = 0.168>, fillcolor="#eda775"] ;
259 -> 263 ;
264 [label=<squared_error = 0.0<br/>samples = 1<br/>value = 0.166>, fillcolor="#eda775"] ;
263 -> 264 ;
265 [label=<squared_error = 0.0<br/>samples = 1<br/>value = 0.171>, fillcolor="#eda775"] ;
263 -> 265 ;
266 [label=<9M_Mom &le; -0.089<br/>squared_error = 0.002<br/>samples = 2<br/>value = 0.329>, fillcolor="#ea985d"] ;
230 -> 266 ;
267 [label=<squared_error = 0.0<br/>samples = 1<br/>value = 0.373>, fillcolor="#e99456"] ;
266 -> 267 ;
268 [label=<squared_error = 0.0<br/>samples = 1<br/>value = 0.284>, fillcolor="#eb9c64"] ;
266 -> 268 ;
269 [label=<9M_Mom &le; -0.183<br/>squared_error = 0.003<br/>samples = 3<br/>value = -0.003>, fillcolor="#f0b88f"] ;
175 -> 269 ;
270 [label=<squared_error = 0.0<br/>samples = 1<br/>value = 0.06>, fillcolor="#efb285"] ;
269 -> 270 ;
271 [label=<9M_Mom &le; -0.171<br/>squared_error = 0.001<br/>samples = 2<br/>value = -0.035>, fillcolor="#f1bb94"] ;
269 -> 271 ;
272 [label=<squared_error = 0.0<br/>samples = 1<br/>value = -0.006>, fillcolor="#f0b88f"] ;
271 -> 272 ;
273 [label=<squared_error = 0.0<br/>samples = 1<br/>value = -0.064>, fillcolor="#f1be98"] ;
271 -> 273 ;
274 [label=<5Y_val &le; -0.206<br/>squared_error = 0.022<br/>samples = 505<br/>value = 0.058>, fillcolor="#efb286"] ;
100 -> 274 ;
275 [label=<9M_Mom &le; 0.219<br/>squared_error = 0.001<br/>samples = 3<br/>value = 0.282>, fillcolor="#eb9c64"] ;
274 -> 275 ;
276 [label=<squared_error = 0.0<br/>samples = 1<br/>value = 0.235>, fillcolor="#eca16b"] ;
275 -> 276 ;
277 [label=<9M_Mom &le; 0.425<br/>squared_error = 0.0<br/>samples = 2<br/>value = 0.306>, fillcolor="#ea9a60"] ;
275 -> 277 ;
278 [label=<squared_error = 0.0<br/>samples = 1<br/>value = 0.323>, fillcolor="#ea985e"] ;
277 -> 278 ;
279 [label=<squared_error = 0.0<br/>samples = 1<br/>value = 0.288>, fillcolor="#eb9c63"] ;
277 -> 279 ;
280 [label=<5Y_val &le; 1.13<br/>squared_error = 0.022<br/>samples = 502<br/>value = 0.057>, fillcolor="#efb286"] ;
274 -> 280 ;
281 [label=<5Y_val &le; 1.101<br/>squared_error = 0.022<br/>samples = 497<br/>value = 0.055>, fillcolor="#efb286"] ;
280 -> 281 ;
282 [label=<5Y_val &le; 1.052<br/>squared_error = 0.022<br/>samples = 487<br/>value = 0.057>, fillcolor="#efb286"] ;
281 -> 282 ;
283 [label=<5Y_val &le; 1.048<br/>squared_error = 0.021<br/>samples = 476<br/>value = 0.054>, fillcolor="#efb286"] ;
282 -> 283 ;
284 [label=<5Y_val &le; 0.278<br/>squared_error = 0.021<br/>samples = 474<br/>value = 0.055>, fillcolor="#efb286"] ;
283 -> 284 ;
285 [label=<9M_Mom &le; -0.042<br/>squared_error = 0.021<br/>samples = 176<br/>value = 0.072>, fillcolor="#efb184"] ;
284 -> 285 ;
286 [label=<5Y_val &le; 0.216<br/>squared_error = 0.046<br/>samples = 24<br/>value = -0.023>, fillcolor="#f1ba92"] ;
285 -> 286 ;
287 [label=<5Y_val &le; 0.044<br/>squared_error = 0.043<br/>samples = 21<br/>value = -0.054>, fillcolor="#f1bd97"] ;
286 -> 287 ;
288 [label=<5Y_val &le; 0.001<br/>squared_error = 0.013<br/>samples = 12<br/>value = 0.014>, fillcolor="#f0b68c"] ;
287 -> 288 ;
289 [label=<9M_Mom &le; -0.084<br/>squared_error = 0.013<br/>samples = 10<br/>value = -0.005>, fillcolor="#f0b88f"] ;
288 -> 289 ;
290 [label=<squared_error = 0.0<br/>samples = 1<br/>value = 0.155>, fillcolor="#eda877"] ;
289 -> 290 ;
291 [label=<9M_Mom &le; -0.073<br/>squared_error = 0.011<br/>samples = 9<br/>value = -0.023>, fillcolor="#f1ba92"] ;
289 -> 291 ;
292 [label=<5Y_val &le; -0.065<br/>squared_error = 0.0<br/>samples = 2<br/>value = -0.159>, fillcolor="#f3c7a6"] ;
291 -> 292 ;
293 [label=<squared_error = 0.0<br/>samples = 1<br/>value = -0.154>, fillcolor="#f3c6a6"] ;
292 -> 293 ;
294 [label=<squared_error = -0.0<br/>samples = 1<br/>value = -0.165>, fillcolor="#f3c7a7"] ;
292 -> 294 ;
295 [label=<5Y_val &le; -0.087<br/>squared_error = 0.008<br/>samples = 7<br/>value = 0.016>, fillcolor="#f0b68c"] ;
291 -> 295 ;
296 [label=<5Y_val &le; -0.105<br/>squared_error = 0.006<br/>samples = 4<br/>value = 0.069>, fillcolor="#efb184"] ;
295 -> 296 ;
297 [label=<5Y_val &le; -0.158<br/>squared_error = 0.001<br/>samples = 3<br/>value = 0.025>, fillcolor="#f0b58b"] ;
296 -> 297 ;
298 [label=<squared_error = 0.0<br/>samples = 1<br/>value = -0.001>, fillcolor="#f0b88f"] ;
297 -> 298 ;
299 [label=<5Y_val &le; -0.126<br/>squared_error = 0.001<br/>samples = 2<br/>value = 0.038>, fillcolor="#efb489"] ;
297 -> 299 ;
300 [label=<squared_error = 0.0<br/>samples = 1<br/>value = 0.065>, fillcolor="#efb185"] ;
299 -> 300 ;
301 [label=<squared_error = -0.0<br/>samples = 1<br/>value = 0.012>, fillcolor="#f0b68d"] ;
299 -> 301 ;
302 [label=<squared_error = 0.0<br/>samples = 1<br/>value = 0.201>, fillcolor="#eca470"] ;
296 -> 302 ;
303 [label=<9M_Mom &le; -0.052<br/>squared_error = 0.001<br/>samples = 3<br/>value = -0.055>, fillcolor="#f1bd97"] ;
295 -> 303 ;
304 [label=<squared_error = 0.0<br/>samples = 1<br/>value = -0.098>, fillcolor="#f2c19d"] ;
303 -> 304 ;
305 [label=<5Y_val &le; -0.074<br/>squared_error = 0.0<br/>samples = 2<br/>value = -0.034>, fillcolor="#f1bb93"] ;
303 -> 305 ;
306 [label=<squared_error = 0.0<br/>samples = 1<br/>value = -0.016>, fillcolor="#f1b991"] ;
305 -> 306 ;
307 [label=<squared_error = 0.0<br/>samples = 1<br/>value = -0.051>, fillcolor="#f1bc96"] ;
305 -> 307 ;
308 [label=<9M_Mom &le; -0.066<br/>squared_error = 0.0<br/>samples = 2<br/>value = 0.111>, fillcolor="#eead7e"] ;
288 -> 308 ;
309 [label=<squared_error = 0.0<br/>samples = 1<br/>value = 0.113>, fillcolor="#eead7d"] ;
308 -> 309 ;
310 [label=<squared_error = -0.0<br/>samples = 1<br/>value = 0.109>, fillcolor="#eead7e"] ;
308 -> 310 ;
311 [label=<9M_Mom &le; -0.063<br/>squared_error = 0.069<br/>samples = 9<br/>value = -0.144>, fillcolor="#f3c5a4"] ;
287 -> 311 ;
312 [label=<5Y_val &le; 0.052<br/>squared_error = 0.006<br/>samples = 2<br/>value = -0.458>, fillcolor="#f9e3d4"] ;
311 -> 312 ;
313 [label=<squared_error = 0.0<br/>samples = 1<br/>value = -0.382>, fillcolor="#f8dcc8"] ;
312 -> 313 ;
314 [label=<squared_error = 0.0<br/>samples = 1<br/>value = -0.534>, fillcolor="#fbebdf"] ;
312 -> 314 ;
315 [label=<9M_Mom &le; -0.056<br/>squared_error = 0.051<br/>samples = 7<br/>value = -0.054>, fillcolor="#f1bd97"] ;
311 -> 315 ;
316 [label=<9M_Mom &le; -0.057<br/>squared_error = 0.064<br/>samples = 3<br/>value = 0.109>, fillcolor="#eead7e"] ;
315 -> 316 ;
317 [label=<9M_Mom &le; -0.058<br/>squared_error = 0.02<br/>samples = 2<br/>value = -0.05>, fillcolor="#f1bc96"] ;
316 -> 317 ;
318 [label=<squared_error = 0.0<br/>samples = 1<br/>value = 0.093>, fillcolor="#eeae80"] ;
317 -> 318 ;
319 [label=<squared_error = 0.0<br/>samples = 1<br/>value = -0.193>, fillcolor="#f4caab"] ;
317 -> 319 ;
320 [label=<squared_error = 0.0<br/>samples = 1<br/>value = 0.428>, fillcolor="#e88e4e"] ;
316 -> 320 ;
321 [label=<5Y_val &le; 0.171<br/>squared_error = 0.006<br/>samples = 4<br/>value = -0.177>, fillcolor="#f4c8a9"] ;
315 -> 321 ;
322 [label=<9M_Mom &le; -0.05<br/>squared_error = 0.002<br/>samples = 3<br/>value = -0.138>, fillcolor="#f3c5a3"] ;
321 -> 322 ;
323 [label=<5Y_val &le; 0.105<br/>squared_error = 0.0<br/>samples = 2<br/>value = -0.17>, fillcolor="#f4c8a8"] ;
322 -> 323 ;
324 [label=<squared_error = 0.0<br/>samples = 1<br/>value = -0.184>, fillcolor="#f4c9aa"] ;
323 -> 324 ;
325 [label=<squared_error = -0.0<br/>samples = 1<br/>value = -0.155>, fillcolor="#f3c6a6"] ;
323 -> 325 ;
326 [label=<squared_error = 0.0<br/>samples = 1<br/>value = -0.073>, fillcolor="#f2be99"] ;
322 -> 326 ;
327 [label=<squared_error = -0.0<br/>samples = 1<br/>value = -0.295>, fillcolor="#f6d4bb"] ;
321 -> 327 ;
328 [label=<9M_Mom &le; -0.052<br/>squared_error = 0.011<br/>samples = 3<br/>value = 0.195>, fillcolor="#eca571"] ;
286 -> 328 ;
329 [label=<5Y_val &le; 0.238<br/>squared_error = 0.003<br/>samples = 2<br/>value = 0.261>, fillcolor="#eb9e67"] ;
328 -> 329 ;
330 [label=<squared_error = 0.0<br/>samples = 1<br/>value = 0.319>, fillcolor="#ea995e"] ;
329 -> 330 ;
331 [label=<squared_error = -0.0<br/>samples = 1<br/>value = 0.204>, fillcolor="#eca470"] ;
329 -> 331 ;
332 [label=<squared_error = -0.0<br/>samples = 1<br/>value = 0.063>, fillcolor="#efb185"] ;
328 -> 332 ;
333 [label=<9M_Mom &le; 0.427<br/>squared_error = 0.016<br/>samples = 152<br/>value = 0.086>, fillcolor="#efaf81"] ;
285 -> 333 ;
334 [label=<5Y_val &le; 0.266<br/>squared_error = 0.016<br/>samples = 148<br/>value = 0.083>, fillcolor="#efaf82"] ;
333 -> 334 ;
335 [label=<5Y_val &le; 0.222<br/>squared_error = 0.016<br/>samples = 142<br/>value = 0.079>, fillcolor="#efb083"] ;
334 -> 335 ;
336 [label=<5Y_val &le; 0.212<br/>squared_error = 0.013<br/>samples = 119<br/>value = 0.09>, fillcolor="#eeaf81"] ;
335 -> 336 ;
337 [label=<5Y_val &le; 0.206<br/>squared_error = 0.012<br/>samples = 112<br/>value = 0.081>, fillcolor="#efb082"] ;
336 -> 337 ;
338 [label=<5Y_val &le; 0.11<br/>squared_error = 0.012<br/>samples = 111<br/>value = 0.084>, fillcolor="#efaf82"] ;
337 -> 338 ;
339 [label=<5Y_val &le; 0.107<br/>squared_error = 0.013<br/>samples = 68<br/>value = 0.069>, fillcolor="#efb184"] ;
338 -> 339 ;
340 [label=<5Y_val &le; 0.07<br/>squared_error = 0.011<br/>samples = 67<br/>value = 0.075>, fillcolor="#efb083"] ;
339 -> 340 ;
341 [label=<5Y_val &le; 0.062<br/>squared_error = 0.009<br/>samples = 55<br/>value = 0.09>, fillcolor="#eeaf81"] ;
340 -> 341 ;
342 [label=<5Y_val &le; 0.001<br/>squared_error = 0.009<br/>samples = 50<br/>value = 0.083>, fillcolor="#efaf82"] ;
341 -> 342 ;
343 [label=<5Y_val &le; -0.007<br/>squared_error = 0.008<br/>samples = 36<br/>value = 0.098>, fillcolor="#eeae80"] ;
342 -> 343 ;
344 [label=<9M_Mom &le; 0.006<br/>squared_error = 0.007<br/>samples = 32<br/>value = 0.087>, fillcolor="#efaf81"] ;
343 -> 344 ;
345 [label=<5Y_val &le; -0.066<br/>squared_error = 0.011<br/>samples = 12<br/>value = 0.054>, fillcolor="#efb286"] ;
344 -> 345 ;
346 [label=<5Y_val &le; -0.072<br/>squared_error = 0.005<br/>samples = 9<br/>value = 0.094>, fillcolor="#eeae80"] ;
345 -> 346 ;
347 [label=<9M_Mom &le; -0.027<br/>squared_error = 0.003<br/>samples = 7<br/>value = 0.064>, fillcolor="#efb185"] ;
346 -> 347 ;
348 [label=<9M_Mom &le; -0.037<br/>squared_error = 0.0<br/>samples = 2<br/>value = 0.014>, fillcolor="#f0b68c"] ;
347 -> 348 ;
349 [label=<squared_error = 0.0<br/>samples = 1<br/>value = 0.018>, fillcolor="#f0b68c"] ;
348 -> 349 ;
350 [label=<squared_error = 0.0<br/>samples = 1<br/>value = 0.011>, fillcolor="#f0b68d"] ;
348 -> 350 ;
351 [label=<5Y_val &le; -0.097<br/>squared_error = 0.002<br/>samples = 5<br/>value = 0.084>, fillcolor="#efaf82"] ;
347 -> 351 ;
352 [label=<9M_Mom &le; -0.01<br/>squared_error = 0.0<br/>samples = 2<br/>value = 0.138>, fillcolor="#edaa7a"] ;
351 -> 352 ;
353 [label=<squared_error = 0.0<br/>samples = 1<br/>value = 0.124>, fillcolor="#eeab7c"] ;
352 -> 353 ;
354 [label=<squared_error = -0.0<br/>samples = 1<br/>value = 0.152>, fillcolor="#eda977"] ;
352 -> 354 ;
355 [label=<9M_Mom &le; -0.003<br/>squared_error = 0.001<br/>samples = 3<br/>value = 0.048>, fillcolor="#efb387"] ;
351 -> 355 ;
356 [label=<9M_Mom &le; -0.015<br/>squared_error = 0.0<br/>samples = 2<br/>value = 0.062>, fillcolor="#efb185"] ;
355 -> 356 ;
357 [label=<squared_error = 0.0<br/>samples = 1<br/>value = 0.05>, fillcolor="#efb387"] ;
356 -> 357 ;
358 [label=<squared_error = 0.0<br/>samples = 1<br/>value = 0.074>, fillcolor="#efb083"] ;
356 -> 358 ;
359 [label=<squared_error = 0.0<br/>samples = 1<br/>value = 0.019>, fillcolor="#f0b68c"] ;
355 -> 359 ;
360 [label=<5Y_val &le; -0.07<br/>squared_error = 0.0<br/>samples = 2<br/>value = 0.2>, fillcolor="#eca470"] ;
346 -> 360 ;
361 [label=<squared_error = 0.0<br/>samples = 1<br/>value = 0.209>, fillcolor="#eca36f"] ;
360 -> 361 ;
362 [label=<squared_error = 0.0<br/>samples = 1<br/>value = 0.19>, fillcolor="#eca572"] ;
360 -> 362 ;
363 [label=<9M_Mom &le; -0.015<br/>squared_error = 0.01<br/>samples = 3<br/>value = -0.065>, fillcolor="#f2be98"] ;
345 -> 363 ;
364 [label=<squared_error = 0.0<br/>samples = 1<br/>value = 0.075>, fillcolor="#efb083"] ;
363 -> 364 ;
365 [label=<5Y_val &le; -0.041<br/>squared_error = 0.0<br/>samples = 2<br/>value = -0.135>, fillcolor="#f3c4a3"] ;
363 -> 365 ;
366 [label=<squared_error = 0.0<br/>samples = 1<br/>value = -0.137>, fillcolor="#f3c5a3"] ;
365 -> 366 ;
367 [label=<squared_error = -0.0<br/>samples = 1<br/>value = -0.134>, fillcolor="#f3c4a3"] ;
365 -> 367 ;
368 [label=<5Y_val &le; -0.072<br/>squared_error = 0.004<br/>samples = 20<br/>value = 0.106>, fillcolor="#eead7e"] ;
344 -> 368 ;
369 [label=<9M_Mom &le; 0.179<br/>squared_error = 0.002<br/>samples = 6<br/>value = 0.135>, fillcolor="#eeaa7a"] ;
368 -> 369 ;
370 [label=<5Y_val &le; -0.152<br/>squared_error = 0.002<br/>samples = 4<br/>value = 0.115>, fillcolor="#eeac7d"] ;
369 -> 370 ;
371 [label=<squared_error = 0.0<br/>samples = 1<br/>value = 0.171>, fillcolor="#eda775"] ;
370 -> 371 ;
372 [label=<9M_Mom &le; 0.026<br/>squared_error = 0.001<br/>samples = 3<br/>value = 0.096>, fillcolor="#eeae80"] ;
370 -> 372 ;
373 [label=<squared_error = 0.0<br/>samples = 1<br/>value = 0.129>, fillcolor="#eeab7b"] ;
372 -> 373 ;
374 [label=<5Y_val &le; -0.117<br/>squared_error = 0.0<br/>samples = 2<br/>value = 0.079>, fillcolor="#efb082"] ;
372 -> 374 ;
375 [label=<squared_error = 0.0<br/>samples = 1<br/>value = 0.089>, fillcolor="#eeaf81"] ;
374 -> 375 ;
376 [label=<squared_error = 0.0<br/>samples = 1<br/>value = 0.07>, fillcolor="#efb184"] ;
374 -> 376 ;
377 [label=<5Y_val &le; -0.081<br/>squared_error = 0.0<br/>samples = 2<br/>value = 0.177>, fillcolor="#eda674"] ;
369 -> 377 ;
378 [label=<squared_error = 0.0<br/>samples = 1<br/>value = 0.177>, fillcolor="#eda674"] ;
377 -> 378 ;
379 [label=<squared_error = -0.0<br/>samples = 1<br/>value = 0.178>, fillcolor="#eda674"] ;
377 -> 379 ;
380 [label=<5Y_val &le; -0.021<br/>squared_error = 0.004<br/>samples = 14<br/>value = 0.093>, fillcolor="#eeae80"] ;
368 -> 380 ;
381 [label=<9M_Mom &le; 0.05<br/>squared_error = 0.002<br/>samples = 7<br/>value = 0.061>, fillcolor="#efb185"] ;
380 -> 381 ;
382 [label=<squared_error = 0.0<br/>samples = 1<br/>value = 0.128>, fillcolor="#eeab7b"] ;
381 -> 382 ;
383 [label=<9M_Mom &le; 0.193<br/>squared_error = 0.002<br/>samples = 6<br/>value = 0.05>, fillcolor="#efb387"] ;
381 -> 383 ;
384 [label=<9M_Mom &le; 0.118<br/>squared_error = 0.002<br/>samples = 3<br/>value = 0.021>, fillcolor="#f0b58b"] ;
383 -> 384 ;
385 [label=<9M_Mom &le; 0.084<br/>squared_error = 0.0<br/>samples = 2<br/>value = 0.047>, fillcolor="#efb387"] ;
384 -> 385 ;
386 [label=<squared_error = 0.0<br/>samples = 1<br/>value = 0.064>, fillcolor="#efb185"] ;
385 -> 386 ;
387 [label=<squared_error = 0.0<br/>samples = 1<br/>value = 0.031>, fillcolor="#f0b48a"] ;
385 -> 387 ;
388 [label=<squared_error = 0.0<br/>samples = 1<br/>value = -0.032>, fillcolor="#f1ba93"] ;
384 -> 388 ;
389 [label=<9M_Mom &le; 0.31<br/>squared_error = 0.0<br/>samples = 3<br/>value = 0.08>, fillcolor="#efb082"] ;
383 -> 389 ;
390 [label=<5Y_val &le; -0.04<br/>squared_error = 0.0<br/>samples = 2<br/>value = 0.084>, fillcolor="#efaf82"] ;
389 -> 390 ;
391 [label=<squared_error = 0.0<br/>samples = 1<br/>value = 0.085>, fillcolor="#efaf82"] ;
390 -> 391 ;
392 [label=<squared_error = -0.0<br/>samples = 1<br/>value = 0.083>, fillcolor="#efaf82"] ;
390 -> 392 ;
393 [label=<squared_error = 0.0<br/>samples = 1<br/>value = 0.072>, fillcolor="#efb084"] ;
389 -> 393 ;
394 [label=<5Y_val &le; -0.017<br/>squared_error = 0.003<br/>samples = 7<br/>value = 0.125>, fillcolor="#eeab7c"] ;
380 -> 394 ;
395 [label=<5Y_val &le; -0.02<br/>squared_error = 0.002<br/>samples = 3<br/>value = 0.178>, fillcolor="#eda674"] ;
394 -> 395 ;
396 [label=<5Y_val &le; -0.021<br/>squared_error = 0.001<br/>samples = 2<br/>value = 0.15>, fillcolor="#eda978"] ;
395 -> 396 ;
397 [label=<squared_error = 0.0<br/>samples = 1<br/>value = 0.175>, fillcolor="#eda774"] ;
396 -> 397 ;
398 [label=<squared_error = 0.0<br/>samples = 1<br/>value = 0.124>, fillcolor="#eeab7c"] ;
396 -> 398 ;
399 [label=<squared_error = -0.0<br/>samples = 1<br/>value = 0.235>, fillcolor="#eca16b"] ;
395 -> 399 ;
400 [label=<9M_Mom &le; 0.089<br/>squared_error = 0.001<br/>samples = 4<br/>value = 0.086>, fillcolor="#efaf81"] ;
394 -> 400 ;
401 [label=<5Y_val &le; -0.014<br/>squared_error = 0.0<br/>samples = 2<br/>value = 0.115>, fillcolor="#eeac7d"] ;
400 -> 401 ;
402 [label=<squared_error = 0.0<br/>samples = 1<br/>value = 0.116>, fillcolor="#eeac7d"] ;
401 -> 402 ;
403 [label=<squared_error = -0.0<br/>samples = 1<br/>value = 0.114>, fillcolor="#eeac7d"] ;
401 -> 403 ;
404 [label=<9M_Mom &le; 0.163<br/>squared_error = 0.0<br/>samples = 2<br/>value = 0.057>, fillcolor="#efb286"] ;
400 -> 404 ;
405 [label=<squared_error = 0.0<br/>samples = 1<br/>value = 0.057>, fillcolor="#efb286"] ;
404 -> 405 ;
406 [label=<squared_error = -0.0<br/>samples = 1<br/>value = 0.056>, fillcolor="#efb286"] ;
404 -> 406 ;
407 [label=<5Y_val &le; -0.003<br/>squared_error = 0.004<br/>samples = 4<br/>value = 0.19>, fillcolor="#eca572"] ;
343 -> 407 ;
408 [label=<9M_Mom &le; 0.151<br/>squared_error = 0.0<br/>samples = 2<br/>value = 0.246>, fillcolor="#eba069"] ;
407 -> 408 ;
409 [label=<squared_error = 0.0<br/>samples = 1<br/>value = 0.265>, fillcolor="#eb9e67"] ;
408 -> 409 ;
410 [label=<squared_error = 0.0<br/>samples = 1<br/>value = 0.227>, fillcolor="#eca26c"] ;
408 -> 410 ;
411 [label=<5Y_val &le; -0.001<br/>squared_error = 0.001<br/>samples = 2<br/>value = 0.134>, fillcolor="#eeaa7a"] ;
407 -> 411 ;
412 [label=<squared_error = 0.0<br/>samples = 1<br/>value = 0.102>, fillcolor="#eeae7f"] ;
411 -> 412 ;
413 [label=<squared_error = -0.0<br/>samples = 1<br/>value = 0.166>, fillcolor="#eda775"] ;
411 -> 413 ;
414 [label=<5Y_val &le; 0.046<br/>squared_error = 0.011<br/>samples = 14<br/>value = 0.043>, fillcolor="#efb388"] ;
342 -> 414 ;
415 [label=<9M_Mom &le; 0.056<br/>squared_error = 0.004<br/>samples = 8<br/>value = 0.009>, fillcolor="#f0b78d"] ;
414 -> 415 ;
416 [label=<squared_error = 0.0<br/>samples = 1<br/>value = 0.133>, fillcolor="#eeab7a"] ;
415 -> 416 ;
417 [label=<9M_Mom &le; 0.165<br/>squared_error = 0.002<br/>samples = 7<br/>value = -0.009>, fillcolor="#f0b890"] ;
415 -> 417 ;
418 [label=<9M_Mom &le; 0.111<br/>squared_error = 0.001<br/>samples = 4<br/>value = -0.036>, fillcolor="#f1bb94"] ;
417 -> 418 ;
419 [label=<5Y_val &le; 0.028<br/>squared_error = 0.0<br/>samples = 2<br/>value = -0.021>, fillcolor="#f1b992"] ;
418 -> 419 ;
420 [label=<squared_error = 0.0<br/>samples = 1<br/>value = -0.043>, fillcolor="#f1bc95"] ;
419 -> 420 ;
421 [label=<squared_error = 0.0<br/>samples = 1<br/>value = 0.001>, fillcolor="#f0b78e"] ;
419 -> 421 ;
422 [label=<5Y_val &le; 0.022<br/>squared_error = 0.0<br/>samples = 2<br/>value = -0.051>, fillcolor="#f1bc96"] ;
418 -> 422 ;
423 [label=<squared_error = 0.0<br/>samples = 1<br/>value = -0.041>, fillcolor="#f1bb95"] ;
422 -> 423 ;
424 [label=<squared_error = 0.0<br/>samples = 1<br/>value = -0.062>, fillcolor="#f1bd98"] ;
422 -> 424 ;
425 [label=<5Y_val &le; 0.039<br/>squared_error = 0.002<br/>samples = 3<br/>value = 0.027>, fillcolor="#f0b58a"] ;
417 -> 425 ;
426 [label=<9M_Mom &le; 0.228<br/>squared_error = 0.0<br/>samples = 2<br/>value = 0.059>, fillcolor="#efb286"] ;
425 -> 426 ;
427 [label=<squared_error = 0.0<br/>samples = 1<br/>value = 0.081>, fillcolor="#efb082"] ;
426 -> 427 ;
428 [label=<squared_error = 0.0<br/>samples = 1<br/>value = 0.037>, fillcolor="#efb489"] ;
426 -> 428 ;
429 [label=<squared_error = 0.0<br/>samples = 1<br/>value = -0.037>, fillcolor="#f1bb94"] ;
425 -> 429 ;
430 [label=<9M_Mom &le; 0.056<br/>squared_error = 0.016<br/>samples = 6<br/>value = 0.089>, fillcolor="#eeaf81"] ;
414 -> 430 ;
431 [label=<squared_error = 0.0<br/>samples = 1<br/>value = -0.122>, fillcolor="#f3c3a1"] ;
430 -> 431 ;
432 [label=<9M_Mom &le; 0.102<br/>squared_error = 0.008<br/>samples = 5<br/>value = 0.131>, fillcolor="#eeab7b"] ;
430 -> 432 ;
433 [label=<9M_Mom &le; 0.076<br/>squared_error = 0.006<br/>samples = 2<br/>value = 0.218>, fillcolor="#eca26e"] ;
432 -> 433 ;
434 [label=<squared_error = 0.0<br/>samples = 1<br/>value = 0.143>, fillcolor="#edaa79"] ;
433 -> 434 ;
435 [label=<squared_error = 0.0<br/>samples = 1<br/>value = 0.293>, fillcolor="#ea9b62"] ;
433 -> 435 ;
436 [label=<5Y_val &le; 0.049<br/>squared_error = 0.002<br/>samples = 3<br/>value = 0.074>, fillcolor="#efb083"] ;
432 -> 436 ;
437 [label=<squared_error = 0.0<br/>samples = 1<br/>value = 0.112>, fillcolor="#eead7d"] ;
436 -> 437 ;
438 [label=<5Y_val &le; 0.056<br/>squared_error = 0.002<br/>samples = 2<br/>value = 0.054>, fillcolor="#efb286"] ;
436 -> 438 ;
439 [label=<squared_error = 0.0<br/>samples = 1<br/>value = 0.012>, fillcolor="#f0b68d"] ;
438 -> 439 ;
440 [label=<squared_error = -0.0<br/>samples = 1<br/>value = 0.097>, fillcolor="#eeae80"] ;
438 -> 440 ;
441 [label=<9M_Mom &le; 0.319<br/>squared_error = 0.005<br/>samples = 5<br/>value = 0.165>, fillcolor="#eda775"] ;
341 -> 441 ;
442 [label=<5Y_val &le; 0.064<br/>squared_error = 0.002<br/>samples = 4<br/>value = 0.194>, fillcolor="#eca571"] ;
441 -> 442 ;
443 [label=<squared_error = 0.0<br/>samples = 1<br/>value = 0.268>, fillcolor="#eb9e66"] ;
442 -> 443 ;
444 [label=<9M_Mom &le; 0.102<br/>squared_error = 0.0<br/>samples = 3<br/>value = 0.17>, fillcolor="#eda775"] ;
442 -> 444 ;
445 [label=<squared_error = 0.0<br/>samples = 1<br/>value = 0.195>, fillcolor="#eca571"] ;
444 -> 445 ;
446 [label=<9M_Mom &le; 0.199<br/>squared_error = 0.0<br/>samples = 2<br/>value = 0.157>, fillcolor="#eda877"] ;
444 -> 446 ;
447 [label=<squared_error = 0.0<br/>samples = 1<br/>value = 0.145>, fillcolor="#eda979"] ;
446 -> 447 ;
448 [label=<squared_error = -0.0<br/>samples = 1<br/>value = 0.169>, fillcolor="#eda775"] ;
446 -> 448 ;
449 [label=<squared_error = -0.0<br/>samples = 1<br/>value = 0.05>, fillcolor="#efb387"] ;
441 -> 449 ;
450 [label=<9M_Mom &le; -0.015<br/>squared_error = 0.014<br/>samples = 12<br/>value = 0.004>, fillcolor="#f0b78e"] ;
340 -> 450 ;
451 [label=<squared_error = 0.0<br/>samples = 1<br/>value = 0.126>, fillcolor="#eeab7b"] ;
450 -> 451 ;
452 [label=<9M_Mom &le; 0.006<br/>squared_error = 0.014<br/>samples = 11<br/>value = -0.007>, fillcolor="#f0b890"] ;
450 -> 452 ;
453 [label=<squared_error = 0.0<br/>samples = 1<br/>value = -0.169>, fillcolor="#f4c8a8"] ;
452 -> 453 ;
454 [label=<9M_Mom &le; 0.018<br/>squared_error = 0.012<br/>samples = 10<br/>value = 0.009>, fillcolor="#f0b68d"] ;
452 -> 454 ;
455 [label=<squared_error = 0.0<br/>samples = 1<br/>value = 0.223>, fillcolor="#eca26d"] ;
454 -> 455 ;
456 [label=<5Y_val &le; 0.104<br/>squared_error = 0.008<br/>samples = 9<br/>value = -0.015>, fillcolor="#f1b991"] ;
454 -> 456 ;
457 [label=<5Y_val &le; 0.082<br/>squared_error = 0.006<br/>samples = 8<br/>value = -0.032>, fillcolor="#f1ba93"] ;
456 -> 457 ;
458 [label=<9M_Mom &le; 0.134<br/>squared_error = 0.01<br/>samples = 3<br/>value = 0.024>, fillcolor="#f0b58b"] ;
457 -> 458 ;
459 [label=<5Y_val &le; 0.076<br/>squared_error = 0.005<br/>samples = 2<br/>value = 0.078>, fillcolor="#efb083"] ;
458 -> 459 ;
460 [label=<squared_error = 0.0<br/>samples = 1<br/>value = 0.152>, fillcolor="#eda977"] ;
459 -> 460 ;
461 [label=<squared_error = -0.0<br/>samples = 1<br/>value = 0.005>, fillcolor="#f0b78e"] ;
459 -> 461 ;
462 [label=<squared_error = -0.0<br/>samples = 1<br/>value = -0.086>, fillcolor="#f2c09b"] ;
458 -> 462 ;
463 [label=<9M_Mom &le; 0.124<br/>squared_error = 0.001<br/>samples = 5<br/>value = -0.065>, fillcolor="#f2be98"] ;
457 -> 463 ;
464 [label=<9M_Mom &le; 0.022<br/>squared_error = 0.0<br/>samples = 3<br/>value = -0.086>, fillcolor="#f2c09b"] ;
463 -> 464 ;
465 [label=<squared_error = 0.0<br/>samples = 1<br/>value = -0.108>, fillcolor="#f2c29f"] ;
464 -> 465 ;
466 [label=<9M_Mom &le; 0.055<br/>squared_error = 0.0<br/>samples = 2<br/>value = -0.075>, fillcolor="#f2bf9a"] ;
464 -> 466 ;
467 [label=<squared_error = 0.0<br/>samples = 1<br/>value = -0.074>, fillcolor="#f2be9a"] ;
466 -> 467 ;
468 [label=<squared_error = 0.0<br/>samples = 1<br/>value = -0.076>, fillcolor="#f2bf9a"] ;
466 -> 468 ;
469 [label=<5Y_val &le; 0.092<br/>squared_error = 0.0<br/>samples = 2<br/>value = -0.033>, fillcolor="#f1bb93"] ;
463 -> 469 ;
470 [label=<squared_error = 0.0<br/>samples = 1<br/>value = -0.045>, fillcolor="#f1bc95"] ;
469 -> 470 ;
471 [label=<squared_error = -0.0<br/>samples = 1<br/>value = -0.021>, fillcolor="#f1b992"] ;
469 -> 471 ;
472 [label=<squared_error = 0.0<br/>samples = 1<br/>value = 0.121>, fillcolor="#eeac7c"] ;
456 -> 472 ;
473 [label=<squared_error = -0.0<br/>samples = 1<br/>value = -0.311>, fillcolor="#f6d5bd"] ;
339 -> 473 ;
474 [label=<5Y_val &le; 0.12<br/>squared_error = 0.008<br/>samples = 43<br/>value = 0.108>, fillcolor="#eead7e"] ;
338 -> 474 ;
475 [label=<9M_Mom &le; 0.093<br/>squared_error = 0.0<br/>samples = 2<br/>value = 0.301>, fillcolor="#ea9a61"] ;
474 -> 475 ;
476 [label=<squared_error = 0.0<br/>samples = 1<br/>value = 0.282>, fillcolor="#eb9c64"] ;
475 -> 476 ;
477 [label=<squared_error = 0.0<br/>samples = 1<br/>value = 0.321>, fillcolor="#ea995e"] ;
475 -> 477 ;
478 [label=<9M_Mom &le; 0.228<br/>squared_error = 0.006<br/>samples = 41<br/>value = 0.099>, fillcolor="#eeae80"] ;
474 -> 478 ;
479 [label=<5Y_val &le; 0.202<br/>squared_error = 0.006<br/>samples = 33<br/>value = 0.114>, fillcolor="#eeac7d"] ;
478 -> 479 ;
480 [label=<9M_Mom &le; -0.009<br/>squared_error = 0.006<br/>samples = 31<br/>value = 0.108>, fillcolor="#eead7e"] ;
479 -> 480 ;
481 [label=<5Y_val &le; 0.152<br/>squared_error = 0.002<br/>samples = 3<br/>value = 0.167>, fillcolor="#eda775"] ;
480 -> 481 ;
482 [label=<squared_error = 0.0<br/>samples = 1<br/>value = 0.116>, fillcolor="#eeac7d"] ;
481 -> 482 ;
483 [label=<5Y_val &le; 0.172<br/>squared_error = 0.001<br/>samples = 2<br/>value = 0.193>, fillcolor="#eca571"] ;
481 -> 483 ;
484 [label=<squared_error = 0.0<br/>samples = 1<br/>value = 0.216>, fillcolor="#eca36e"] ;
483 -> 484 ;
485 [label=<squared_error = -0.0<br/>samples = 1<br/>value = 0.169>, fillcolor="#eda775"] ;
483 -> 485 ;
486 [label=<9M_Mom &le; 0.13<br/>squared_error = 0.006<br/>samples = 28<br/>value = 0.101>, fillcolor="#eeae7f"] ;
480 -> 486 ;
487 [label=<9M_Mom &le; 0.08<br/>squared_error = 0.006<br/>samples = 12<br/>value = 0.072>, fillcolor="#efb084"] ;
486 -> 487 ;
488 [label=<9M_Mom &le; 0.076<br/>squared_error = 0.005<br/>samples = 9<br/>value = 0.102>, fillcolor="#eeae7f"] ;
487 -> 488 ;
489 [label=<9M_Mom &le; 0.059<br/>squared_error = 0.004<br/>samples = 8<br/>value = 0.092>, fillcolor="#eeaf81"] ;
488 -> 489 ;
490 [label=<9M_Mom &le; 0.021<br/>squared_error = 0.002<br/>samples = 5<br/>value = 0.117>, fillcolor="#eeac7d"] ;
489 -> 490 ;
491 [label=<5Y_val &le; 0.162<br/>squared_error = 0.001<br/>samples = 3<br/>value = 0.086>, fillcolor="#efaf81"] ;
490 -> 491 ;
492 [label=<squared_error = 0.0<br/>samples = 1<br/>value = 0.044>, fillcolor="#efb388"] ;
491 -> 492 ;
493 [label=<5Y_val &le; 0.198<br/>squared_error = 0.0<br/>samples = 2<br/>value = 0.107>, fillcolor="#eead7e"] ;
491 -> 493 ;
494 [label=<squared_error = 0.0<br/>samples = 1<br/>value = 0.104>, fillcolor="#eead7f"] ;
493 -> 494 ;
495 [label=<squared_error = 0.0<br/>samples = 1<br/>value = 0.11>, fillcolor="#eead7e"] ;
493 -> 495 ;
496 [label=<5Y_val &le; 0.194<br/>squared_error = 0.001<br/>samples = 2<br/>value = 0.165>, fillcolor="#eda876"] ;
490 -> 496 ;
497 [label=<squared_error = 0.0<br/>samples = 1<br/>value = 0.191>, fillcolor="#eca572"] ;
496 -> 497 ;
498 [label=<squared_error = -0.0<br/>samples = 1<br/>value = 0.138>, fillcolor="#edaa7a"] ;
496 -> 498 ;
499 [label=<5Y_val &le; 0.192<br/>squared_error = 0.005<br/>samples = 3<br/>value = 0.051>, fillcolor="#efb387"] ;
489 -> 499 ;
500 [label=<5Y_val &le; 0.188<br/>squared_error = 0.001<br/>samples = 2<br/>value = 0.005>, fillcolor="#f0b78e"] ;
499 -> 500 ;
501 [label=<squared_error = 0.0<br/>samples = 1<br/>value = -0.03>, fillcolor="#f1ba93"] ;
500 -> 501 ;
502 [label=<squared_error = -0.0<br/>samples = 1<br/>value = 0.04>, fillcolor="#efb488"] ;
500 -> 502 ;
503 [label=<squared_error = 0.0<br/>samples = 1<br/>value = 0.142>, fillcolor="#edaa79"] ;
499 -> 503 ;
504 [label=<squared_error = 0.0<br/>samples = 1<br/>value = 0.175>, fillcolor="#eda774"] ;
488 -> 504 ;
505 [label=<9M_Mom &le; 0.108<br/>squared_error = 0.0<br/>samples = 3<br/>value = -0.018>, fillcolor="#f1b991"] ;
487 -> 505 ;
506 [label=<5Y_val &le; 0.163<br/>squared_error = 0.0<br/>samples = 2<br/>value = -0.023>, fillcolor="#f1ba92"] ;
505 -> 506 ;
507 [label=<squared_error = 0.0<br/>samples = 1<br/>value = -0.019>, fillcolor="#f1b991"] ;
506 -> 507 ;
508 [label=<squared_error = 0.0<br/>samples = 1<br/>value = -0.027>, fillcolor="#f1ba93"] ;
506 -> 508 ;
509 [label=<squared_error = -0.0<br/>samples = 1<br/>value = -0.007>, fillcolor="#f0b88f"] ;
505 -> 509 ;
510 [label=<9M_Mom &le; 0.181<br/>squared_error = 0.005<br/>samples = 16<br/>value = 0.124>, fillcolor="#eeab7c"] ;
486 -> 510 ;
511 [label=<5Y_val &le; 0.134<br/>squared_error = 0.003<br/>samples = 10<br/>value = 0.148>, fillcolor="#eda978"] ;
510 -> 511 ;
512 [label=<5Y_val &le; 0.128<br/>squared_error = 0.002<br/>samples = 2<br/>value = 0.055>, fillcolor="#efb286"] ;
511 -> 512 ;
513 [label=<squared_error = 0.0<br/>samples = 1<br/>value = 0.103>, fillcolor="#eead7f"] ;
512 -> 513 ;
514 [label=<squared_error = 0.0<br/>samples = 1<br/>value = 0.008>, fillcolor="#f0b78d"] ;
512 -> 514 ;
515 [label=<5Y_val &le; 0.185<br/>squared_error = 0.001<br/>samples = 8<br/>value = 0.172>, fillcolor="#eda775"] ;
511 -> 515 ;
516 [label=<5Y_val &le; 0.145<br/>squared_error = 0.001<br/>samples = 7<br/>value = 0.163>, fillcolor="#eda876"] ;
515 -> 516 ;
517 [label=<5Y_val &le; 0.139<br/>squared_error = 0.0<br/>samples = 2<br/>value = 0.138>, fillcolor="#edaa7a"] ;
516 -> 517 ;
518 [label=<squared_error = 0.0<br/>samples = 1<br/>value = 0.159>, fillcolor="#eda876"] ;
517 -> 518 ;
519 [label=<squared_error = 0.0<br/>samples = 1<br/>value = 0.117>, fillcolor="#eeac7d"] ;
517 -> 519 ;
520 [label=<9M_Mom &le; 0.172<br/>squared_error = 0.0<br/>samples = 5<br/>value = 0.173>, fillcolor="#eda774"] ;
516 -> 520 ;
521 [label=<9M_Mom &le; 0.152<br/>squared_error = 0.0<br/>samples = 4<br/>value = 0.178>, fillcolor="#eda674"] ;
520 -> 521 ;
522 [label=<9M_Mom &le; 0.14<br/>squared_error = 0.0<br/>samples = 2<br/>value = 0.165>, fillcolor="#eda876"] ;
521 -> 522 ;
523 [label=<squared_error = 0.0<br/>samples = 1<br/>value = 0.17>, fillcolor="#eda775"] ;
522 -> 523 ;
524 [label=<squared_error = -0.0<br/>samples = 1<br/>value = 0.161>, fillcolor="#eda876"] ;
522 -> 524 ;
525 [label=<5Y_val &le; 0.163<br/>squared_error = 0.0<br/>samples = 2<br/>value = 0.19>, fillcolor="#eca572"] ;
521 -> 525 ;
526 [label=<squared_error = 0.0<br/>samples = 1<br/>value = 0.19>, fillcolor="#eca572"] ;
525 -> 526 ;
527 [label=<squared_error = 0.0<br/>samples = 1<br/>value = 0.189>, fillcolor="#eca572"] ;
525 -> 527 ;
528 [label=<squared_error = -0.0<br/>samples = 1<br/>value = 0.152>, fillcolor="#eda977"] ;
520 -> 528 ;
529 [label=<squared_error = 0.0<br/>samples = 1<br/>value = 0.234>, fillcolor="#eca16b"] ;
515 -> 529 ;
530 [label=<5Y_val &le; 0.185<br/>squared_error = 0.005<br/>samples = 6<br/>value = 0.082>, fillcolor="#efaf82"] ;
510 -> 530 ;
531 [label=<5Y_val &le; 0.147<br/>squared_error = 0.001<br/>samples = 5<br/>value = 0.112>, fillcolor="#eead7e"] ;
530 -> 531 ;
532 [label=<squared_error = 0.0<br/>samples = 1<br/>value = 0.153>, fillcolor="#eda977"] ;
531 -> 532 ;
533 [label=<9M_Mom &le; 0.191<br/>squared_error = 0.0<br/>samples = 4<br/>value = 0.101>, fillcolor="#eeae7f"] ;
531 -> 533 ;
534 [label=<squared_error = 0.0<br/>samples = 1<br/>value = 0.072>, fillcolor="#efb084"] ;
533 -> 534 ;
535 [label=<5Y_val &le; 0.175<br/>squared_error = 0.0<br/>samples = 3<br/>value = 0.111>, fillcolor="#eead7e"] ;
533 -> 535 ;
536 [label=<9M_Mom &le; 0.21<br/>squared_error = 0.0<br/>samples = 2<br/>value = 0.102>, fillcolor="#eeae7f"] ;
535 -> 536 ;
537 [label=<squared_error = 0.0<br/>samples = 1<br/>value = 0.108>, fillcolor="#eead7e"] ;
536 -> 537 ;
538 [label=<squared_error = 0.0<br/>samples = 1<br/>value = 0.095>, fillcolor="#eeae80"] ;
536 -> 538 ;
539 [label=<squared_error = 0.0<br/>samples = 1<br/>value = 0.13>, fillcolor="#eeab7b"] ;
535 -> 539 ;
540 [label=<squared_error = 0.0<br/>samples = 1<br/>value = -0.064>, fillcolor="#f1bd98"] ;
530 -> 540 ;
541 [label=<5Y_val &le; 0.204<br/>squared_error = 0.001<br/>samples = 2<br/>value = 0.207>, fillcolor="#eca36f"] ;
479 -> 541 ;
542 [label=<squared_error = 0.0<br/>samples = 1<br/>value = 0.179>, fillcolor="#eda673"] ;
541 -> 542 ;
543 [label=<squared_error = -0.0<br/>samples = 1<br/>value = 0.236>, fillcolor="#eca16b"] ;
541 -> 543 ;
544 [label=<9M_Mom &le; 0.343<br/>squared_error = 0.002<br/>samples = 8<br/>value = 0.036>, fillcolor="#f0b489"] ;
478 -> 544 ;
545 [label=<5Y_val &le; 0.154<br/>squared_error = 0.001<br/>samples = 5<br/>value = 0.048>, fillcolor="#efb387"] ;
544 -> 545 ;
546 [label=<5Y_val &le; 0.148<br/>squared_error = 0.0<br/>samples = 2<br/>value = 0.019>, fillcolor="#f0b68c"] ;
545 -> 546 ;
547 [label=<squared_error = 0.0<br/>samples = 1<br/>value = 0.035>, fillcolor="#f0b489"] ;
546 -> 547 ;
548 [label=<squared_error = -0.0<br/>samples = 1<br/>value = 0.003>, fillcolor="#f0b78e"] ;
546 -> 548 ;
549 [label=<9M_Mom &le; 0.26<br/>squared_error = 0.001<br/>samples = 3<br/>value = 0.067>, fillcolor="#efb184"] ;
545 -> 549 ;
550 [label=<squared_error = 0.0<br/>samples = 1<br/>value = 0.039>, fillcolor="#efb489"] ;
549 -> 550 ;
551 [label=<5Y_val &le; 0.173<br/>squared_error = 0.0<br/>samples = 2<br/>value = 0.082>, fillcolor="#efb082"] ;
549 -> 551 ;
552 [label=<squared_error = 0.0<br/>samples = 1<br/>value = 0.069>, fillcolor="#efb184"] ;
551 -> 552 ;
553 [label=<squared_error = -0.0<br/>samples = 1<br/>value = 0.094>, fillcolor="#eeae80"] ;
551 -> 553 ;
554 [label=<5Y_val &le; 0.152<br/>squared_error = 0.002<br/>samples = 3<br/>value = 0.015>, fillcolor="#f0b68c"] ;
544 -> 554 ;
555 [label=<squared_error = 0.0<br/>samples = 1<br/>value = 0.066>, fillcolor="#efb184"] ;
554 -> 555 ;
556 [label=<5Y_val &le; 0.188<br/>squared_error = 0.001<br/>samples = 2<br/>value = -0.011>, fillcolor="#f0b890"] ;
554 -> 556 ;
557 [label=<squared_error = 0.0<br/>samples = 1<br/>value = -0.046>, fillcolor="#f1bc95"] ;
556 -> 557 ;
558 [label=<squared_error = 0.0<br/>samples = 1<br/>value = 0.024>, fillcolor="#f0b58b"] ;
556 -> 558 ;
559 [label=<squared_error = 0.0<br/>samples = 1<br/>value = -0.224>, fillcolor="#f5cdb0"] ;
337 -> 559 ;
560 [label=<5Y_val &le; 0.22<br/>squared_error = 0.0<br/>samples = 7<br/>value = 0.221>, fillcolor="#eca26d"] ;
336 -> 560 ;
561 [label=<9M_Mom &le; 0.007<br/>squared_error = 0.0<br/>samples = 6<br/>value = 0.229>, fillcolor="#eca16c"] ;
560 -> 561 ;
562 [label=<squared_error = 0.0<br/>samples = 1<br/>value = 0.25>, fillcolor="#eb9f69"] ;
561 -> 562 ;
563 [label=<5Y_val &le; 0.217<br/>squared_error = 0.0<br/>samples = 5<br/>value = 0.225>, fillcolor="#eca26d"] ;
561 -> 563 ;
564 [label=<9M_Mom &le; 0.14<br/>squared_error = 0.0<br/>samples = 2<br/>value = 0.231>, fillcolor="#eca16c"] ;
563 -> 564 ;
565 [label=<squared_error = 0.0<br/>samples = 1<br/>value = 0.228>, fillcolor="#eca26c"] ;
564 -> 565 ;
566 [label=<squared_error = 0.0<br/>samples = 1<br/>value = 0.234>, fillcolor="#eca16b"] ;
564 -> 566 ;
567 [label=<9M_Mom &le; 0.113<br/>squared_error = 0.0<br/>samples = 3<br/>value = 0.22>, fillcolor="#eca26d"] ;
563 -> 567 ;
568 [label=<5Y_val &le; 0.218<br/>squared_error = 0.0<br/>samples = 2<br/>value = 0.222>, fillcolor="#eca26d"] ;
567 -> 568 ;
569 [label=<squared_error = 0.0<br/>samples = 1<br/>value = 0.223>, fillcolor="#eca26d"] ;
568 -> 569 ;
570 [label=<squared_error = -0.0<br/>samples = 1<br/>value = 0.222>, fillcolor="#eca26d"] ;
568 -> 570 ;
571 [label=<squared_error = -0.0<br/>samples = 1<br/>value = 0.216>, fillcolor="#eca36e"] ;
567 -> 571 ;
572 [label=<squared_error = -0.0<br/>samples = 1<br/>value = 0.176>, fillcolor="#eda774"] ;
560 -> 572 ;
573 [label=<9M_Mom &le; -0.007<br/>squared_error = 0.028<br/>samples = 23<br/>value = 0.025>, fillcolor="#f0b58b"] ;
335 -> 573 ;
574 [label=<9M_Mom &le; -0.027<br/>squared_error = 0.008<br/>samples = 4<br/>value = 0.238>, fillcolor="#eca16b"] ;
573 -> 574 ;
575 [label=<5Y_val &le; 0.249<br/>squared_error = 0.006<br/>samples = 2<br/>value = 0.172>, fillcolor="#eda775"] ;
574 -> 575 ;
576 [label=<squared_error = 0.0<br/>samples = 1<br/>value = 0.092>, fillcolor="#eeaf81"] ;
575 -> 576 ;
577 [label=<squared_error = 0.0<br/>samples = 1<br/>value = 0.251>, fillcolor="#eb9f69"] ;
575 -> 577 ;
578 [label=<9M_Mom &le; -0.013<br/>squared_error = 0.0<br/>samples = 2<br/>value = 0.304>, fillcolor="#ea9a61"] ;
574 -> 578 ;
579 [label=<squared_error = 0.0<br/>samples = 1<br/>value = 0.321>, fillcolor="#ea995e"] ;
578 -> 579 ;
580 [label=<squared_error = -0.0<br/>samples = 1<br/>value = 0.287>, fillcolor="#eb9c63"] ;
578 -> 580 ;
581 [label=<9M_Mom &le; 0.109<br/>squared_error = 0.021<br/>samples = 19<br/>value = -0.02>, fillcolor="#f1b991"] ;
573 -> 581 ;
582 [label=<5Y_val &le; 0.257<br/>squared_error = 0.018<br/>samples = 14<br/>value = -0.069>, fillcolor="#f2be99"] ;
581 -> 582 ;
583 [label=<5Y_val &le; 0.251<br/>squared_error = 0.02<br/>samples = 10<br/>value = -0.031>, fillcolor="#f1ba93"] ;
582 -> 583 ;
584 [label=<9M_Mom &le; 0.014<br/>squared_error = 0.009<br/>samples = 8<br/>value = -0.088>, fillcolor="#f2c09c"] ;
583 -> 584 ;
585 [label=<5Y_val &le; 0.243<br/>squared_error = 0.001<br/>samples = 2<br/>value = -0.0>, fillcolor="#f0b78e"] ;
584 -> 585 ;
586 [label=<squared_error = 0.0<br/>samples = 1<br/>value = 0.029>, fillcolor="#f0b58a"] ;
585 -> 586 ;
587 [label=<squared_error = 0.0<br/>samples = 1<br/>value = -0.029>, fillcolor="#f1ba93"] ;
585 -> 587 ;
588 [label=<5Y_val &le; 0.233<br/>squared_error = 0.008<br/>samples = 6<br/>value = -0.117>, fillcolor="#f3c3a0"] ;
584 -> 588 ;
589 [label=<5Y_val &le; 0.226<br/>squared_error = 0.01<br/>samples = 3<br/>value = -0.062>, fillcolor="#f1bd98"] ;
588 -> 589 ;
590 [label=<squared_error = 0.0<br/>samples = 1<br/>value = -0.191>, fillcolor="#f4caab"] ;
589 -> 590 ;
591 [label=<5Y_val &le; 0.229<br/>squared_error = 0.002<br/>samples = 2<br/>value = 0.002>, fillcolor="#f0b78e"] ;
589 -> 591 ;
592 [label=<squared_error = 0.0<br/>samples = 1<br/>value = 0.047>, fillcolor="#efb387"] ;
591 -> 592 ;
593 [label=<squared_error = -0.0<br/>samples = 1<br/>value = -0.043>, fillcolor="#f1bb95"] ;
591 -> 593 ;
594 [label=<9M_Mom &le; 0.068<br/>squared_error = 0.0<br/>samples = 3<br/>value = -0.172>, fillcolor="#f4c8a8"] ;
588 -> 594 ;
595 [label=<9M_Mom &le; 0.03<br/>squared_error = 0.0<br/>samples = 2<br/>value = -0.16>, fillcolor="#f3c7a7"] ;
594 -> 595 ;
596 [label=<squared_error = 0.0<br/>samples = 1<br/>value = -0.149>, fillcolor="#f3c6a5"] ;
595 -> 596 ;
597 [label=<squared_error = 0.0<br/>samples = 1<br/>value = -0.171>, fillcolor="#f4c8a8"] ;
595 -> 597 ;
598 [label=<squared_error = 0.0<br/>samples = 1<br/>value = -0.195>, fillcolor="#f4caac"] ;
594 -> 598 ;
599 [label=<9M_Mom &le; 0.076<br/>squared_error = 0.0<br/>samples = 2<br/>value = 0.196>, fillcolor="#eca571"] ;
583 -> 599 ;
600 [label=<squared_error = 0.0<br/>samples = 1<br/>value = 0.197>, fillcolor="#eca471"] ;
599 -> 600 ;
601 [label=<squared_error = 0.0<br/>samples = 1<br/>value = 0.195>, fillcolor="#eca571"] ;
599 -> 601 ;
602 [label=<9M_Mom &le; 0.011<br/>squared_error = 0.002<br/>samples = 4<br/>value = -0.164>, fillcolor="#f3c7a7"] ;
582 -> 602 ;
603 [label=<squared_error = 0.0<br/>samples = 1<br/>value = -0.092>, fillcolor="#f2c09c"] ;
602 -> 603 ;
604 [label=<5Y_val &le; 0.262<br/>squared_error = 0.0<br/>samples = 3<br/>value = -0.188>, fillcolor="#f4c9ab"] ;
602 -> 604 ;
605 [label=<5Y_val &le; 0.258<br/>squared_error = 0.0<br/>samples = 2<br/>value = -0.182>, fillcolor="#f4c9aa"] ;
604 -> 605 ;
606 [label=<squared_error = 0.0<br/>samples = 1<br/>value = -0.184>, fillcolor="#f4c9aa"] ;
605 -> 606 ;
607 [label=<squared_error = -0.0<br/>samples = 1<br/>value = -0.18>, fillcolor="#f4c9aa"] ;
605 -> 607 ;
608 [label=<squared_error = 0.0<br/>samples = 1<br/>value = -0.201>, fillcolor="#f4cbad"] ;
604 -> 608 ;
609 [label=<5Y_val &le; 0.262<br/>squared_error = 0.003<br/>samples = 5<br/>value = 0.117>, fillcolor="#eeac7d"] ;
581 -> 609 ;
610 [label=<9M_Mom &le; 0.197<br/>squared_error = 0.001<br/>samples = 4<br/>value = 0.097>, fillcolor="#eeae80"] ;
609 -> 610 ;
611 [label=<9M_Mom &le; 0.154<br/>squared_error = 0.001<br/>samples = 3<br/>value = 0.084>, fillcolor="#efaf82"] ;
610 -> 611 ;
612 [label=<squared_error = 0.0<br/>samples = 1<br/>value = 0.126>, fillcolor="#eeab7b"] ;
611 -> 612 ;
613 [label=<5Y_val &le; 0.253<br/>squared_error = 0.0<br/>samples = 2<br/>value = 0.063>, fillcolor="#efb185"] ;
611 -> 613 ;
614 [label=<squared_error = 0.0<br/>samples = 1<br/>value = 0.062>, fillcolor="#efb185"] ;
613 -> 614 ;
615 [label=<squared_error = 0.0<br/>samples = 1<br/>value = 0.065>, fillcolor="#efb185"] ;
613 -> 615 ;
616 [label=<squared_error = -0.0<br/>samples = 1<br/>value = 0.136>, fillcolor="#eeaa7a"] ;
610 -> 616 ;
617 [label=<squared_error = 0.0<br/>samples = 1<br/>value = 0.197>, fillcolor="#eca471"] ;
609 -> 617 ;
618 [label=<9M_Mom &le; 0.034<br/>squared_error = 0.004<br/>samples = 6<br/>value = 0.172>, fillcolor="#eda774"] ;
334 -> 618 ;
619 [label=<9M_Mom &le; -0.033<br/>squared_error = 0.004<br/>samples = 3<br/>value = 0.124>, fillcolor="#eeab7c"] ;
618 -> 619 ;
620 [label=<squared_error = 0.0<br/>samples = 1<br/>value = 0.185>, fillcolor="#eda673"] ;
619 -> 620 ;
621 [label=<9M_Mom &le; -0.007<br/>squared_error = 0.003<br/>samples = 2<br/>value = 0.094>, fillcolor="#eeae80"] ;
619 -> 621 ;
622 [label=<squared_error = 0.0<br/>samples = 1<br/>value = 0.043>, fillcolor="#efb388"] ;
621 -> 622 ;
623 [label=<squared_error = 0.0<br/>samples = 1<br/>value = 0.145>, fillcolor="#eda979"] ;
621 -> 623 ;
624 [label=<5Y_val &le; 0.267<br/>squared_error = 0.0<br/>samples = 3<br/>value = 0.22>, fillcolor="#eca26d"] ;
618 -> 624 ;
625 [label=<squared_error = 0.0<br/>samples = 1<br/>value = 0.239>, fillcolor="#eba06a"] ;
624 -> 625 ;
626 [label=<5Y_val &le; 0.273<br/>squared_error = 0.0<br/>samples = 2<br/>value = 0.211>, fillcolor="#eca36f"] ;
624 -> 626 ;
627 [label=<squared_error = 0.0<br/>samples = 1<br/>value = 0.213>, fillcolor="#eca36e"] ;
626 -> 627 ;
628 [label=<squared_error = -0.0<br/>samples = 1<br/>value = 0.208>, fillcolor="#eca36f"] ;
626 -> 628 ;
629 [label=<9M_Mom &le; 0.489<br/>squared_error = 0.001<br/>samples = 4<br/>value = 0.217>, fillcolor="#eca36e"] ;
333 -> 629 ;
630 [label=<squared_error = 0.0<br/>samples = 1<br/>value = 0.183>, fillcolor="#eda673"] ;
629 -> 630 ;
631 [label=<9M_Mom &le; 0.564<br/>squared_error = 0.0<br/>samples = 3<br/>value = 0.228>, fillcolor="#eca16c"] ;
629 -> 631 ;
632 [label=<5Y_val &le; -0.15<br/>squared_error = 0.0<br/>samples = 2<br/>value = 0.219>, fillcolor="#eca26d"] ;
631 -> 632 ;
633 [label=<squared_error = 0.0<br/>samples = 1<br/>value = 0.218>, fillcolor="#eca26e"] ;
632 -> 633 ;
634 [label=<squared_error = 0.0<br/>samples = 1<br/>value = 0.22>, fillcolor="#eca26d"] ;
632 -> 634 ;
635 [label=<squared_error = 0.0<br/>samples = 1<br/>value = 0.246>, fillcolor="#eba069"] ;
631 -> 635 ;
636 [label=<5Y_val &le; 0.389<br/>squared_error = 0.021<br/>samples = 298<br/>value = 0.046>, fillcolor="#efb388"] ;
284 -> 636 ;
637 [label=<9M_Mom &le; 0.012<br/>squared_error = 0.016<br/>samples = 54<br/>value = -0.03>, fillcolor="#f1ba93"] ;
636 -> 637 ;
638 [label=<9M_Mom &le; -0.031<br/>squared_error = 0.01<br/>samples = 12<br/>value = 0.033>, fillcolor="#f0b489"] ;
637 -> 638 ;
639 [label=<9M_Mom &le; -0.072<br/>squared_error = 0.01<br/>samples = 3<br/>value = -0.076>, fillcolor="#f2bf9a"] ;
638 -> 639 ;
640 [label=<squared_error = 0.0<br/>samples = 1<br/>value = -0.157>, fillcolor="#f3c6a6"] ;
639 -> 640 ;
641 [label=<5Y_val &le; 0.295<br/>squared_error = 0.011<br/>samples = 2<br/>value = -0.036>, fillcolor="#f1bb94"] ;
639 -> 641 ;
642 [label=<squared_error = 0.0<br/>samples = 1<br/>value = -0.14>, fillcolor="#f3c5a4"] ;
641 -> 642 ;
643 [label=<squared_error = -0.0<br/>samples = 1<br/>value = 0.067>, fillcolor="#efb184"] ;
641 -> 643 ;
644 [label=<9M_Mom &le; -0.02<br/>squared_error = 0.005<br/>samples = 9<br/>value = 0.069>, fillcolor="#efb184"] ;
638 -> 644 ;
645 [label=<squared_error = 0.0<br/>samples = 1<br/>value = 0.178>, fillcolor="#eda674"] ;
644 -> 645 ;
646 [label=<9M_Mom &le; -0.017<br/>squared_error = 0.004<br/>samples = 8<br/>value = 0.056>, fillcolor="#efb286"] ;
644 -> 646 ;
647 [label=<squared_error = 0.0<br/>samples = 1<br/>value = -0.049>, fillcolor="#f1bc96"] ;
646 -> 647 ;
648 [label=<5Y_val &le; 0.302<br/>squared_error = 0.003<br/>samples = 7<br/>value = 0.071>, fillcolor="#efb184"] ;
646 -> 648 ;
649 [label=<9M_Mom &le; -0.014<br/>squared_error = 0.002<br/>samples = 4<br/>value = 0.038>, fillcolor="#efb489"] ;
648 -> 649 ;
650 [label=<squared_error = 0.0<br/>samples = 1<br/>value = 0.114>, fillcolor="#eeac7d"] ;
649 -> 650 ;
651 [label=<9M_Mom &le; -0.01<br/>squared_error = 0.0<br/>samples = 3<br/>value = 0.013>, fillcolor="#f0b68d"] ;
649 -> 651 ;
652 [label=<squared_error = 0.0<br/>samples = 1<br/>value = 0.034>, fillcolor="#f0b489"] ;
651 -> 652 ;
653 [label=<5Y_val &le; 0.292<br/>squared_error = 0.0<br/>samples = 2<br/>value = 0.002>, fillcolor="#f0b78e"] ;
651 -> 653 ;
654 [label=<squared_error = 0.0<br/>samples = 1<br/>value = 0.006>, fillcolor="#f0b78e"] ;
653 -> 654 ;
655 [label=<squared_error = -0.0<br/>samples = 1<br/>value = -0.001>, fillcolor="#f0b78f"] ;
653 -> 655 ;
656 [label=<5Y_val &le; 0.329<br/>squared_error = 0.0<br/>samples = 3<br/>value = 0.114>, fillcolor="#eeac7d"] ;
648 -> 656 ;
657 [label=<squared_error = 0.0<br/>samples = 1<br/>value = 0.098>, fillcolor="#eeae80"] ;
656 -> 657 ;
658 [label=<5Y_val &le; 0.371<br/>squared_error = 0.0<br/>samples = 2<br/>value = 0.123>, fillcolor="#eeac7c"] ;
656 -> 658 ;
659 [label=<squared_error = 0.0<br/>samples = 1<br/>value = 0.118>, fillcolor="#eeac7d"] ;
658 -> 659 ;
660 [label=<squared_error = -0.0<br/>samples = 1<br/>value = 0.127>, fillcolor="#eeab7b"] ;
658 -> 660 ;
661 [label=<9M_Mom &le; 0.108<br/>squared_error = 0.016<br/>samples = 42<br/>value = -0.047>, fillcolor="#f1bc96"] ;
637 -> 661 ;
662 [label=<5Y_val &le; 0.338<br/>squared_error = 0.018<br/>samples = 19<br/>value = -0.097>, fillcolor="#f2c19d"] ;
661 -> 662 ;
663 [label=<5Y_val &le; 0.285<br/>squared_error = 0.014<br/>samples = 10<br/>value = -0.149>, fillcolor="#f3c6a5"] ;
662 -> 663 ;
664 [label=<squared_error = 0.0<br/>samples = 1<br/>value = 0.117>, fillcolor="#eeac7d"] ;
663 -> 664 ;
665 [label=<9M_Mom &le; 0.063<br/>squared_error = 0.007<br/>samples = 9<br/>value = -0.179>, fillcolor="#f4c9a9"] ;
663 -> 665 ;
666 [label=<5Y_val &le; 0.286<br/>squared_error = 0.004<br/>samples = 5<br/>value = -0.226>, fillcolor="#f5cdb0"] ;
665 -> 666 ;
667 [label=<squared_error = 0.0<br/>samples = 1<br/>value = -0.124>, fillcolor="#f3c3a1"] ;
666 -> 667 ;
668 [label=<9M_Mom &le; 0.051<br/>squared_error = 0.002<br/>samples = 4<br/>value = -0.251>, fillcolor="#f5cfb4"] ;
666 -> 668 ;
669 [label=<9M_Mom &le; 0.029<br/>squared_error = 0.0<br/>samples = 2<br/>value = -0.285>, fillcolor="#f6d3ba"] ;
668 -> 669 ;
670 [label=<squared_error = 0.0<br/>samples = 1<br/>value = -0.27>, fillcolor="#f6d1b7"] ;
669 -> 670 ;
671 [label=<squared_error = -0.0<br/>samples = 1<br/>value = -0.301>, fillcolor="#f6d4bc"] ;
669 -> 671 ;
672 [label=<5Y_val &le; 0.321<br/>squared_error = 0.001<br/>samples = 2<br/>value = -0.216>, fillcolor="#f5ccaf"] ;
668 -> 672 ;
673 [label=<squared_error = 0.0<br/>samples = 1<br/>value = -0.241>, fillcolor="#f5ceb3"] ;
672 -> 673 ;
674 [label=<squared_error = 0.0<br/>samples = 1<br/>value = -0.192>, fillcolor="#f4caab"] ;
672 -> 674 ;
675 [label=<5Y_val &le; 0.302<br/>squared_error = 0.005<br/>samples = 4<br/>value = -0.12>, fillcolor="#f3c3a1"] ;
665 -> 675 ;
676 [label=<squared_error = 0.0<br/>samples = 1<br/>value = 0.0>, fillcolor="#f0b78e"] ;
675 -> 676 ;
677 [label=<5Y_val &le; 0.315<br/>squared_error = 0.0<br/>samples = 3<br/>value = -0.16>, fillcolor="#f3c7a7"] ;
675 -> 677 ;
678 [label=<squared_error = 0.0<br/>samples = 1<br/>value = -0.132>, fillcolor="#f3c4a2"] ;
677 -> 678 ;
679 [label=<9M_Mom &le; 0.093<br/>squared_error = 0.0<br/>samples = 2<br/>value = -0.175>, fillcolor="#f4c8a9"] ;
677 -> 679 ;
680 [label=<squared_error = 0.0<br/>samples = 1<br/>value = -0.17>, fillcolor="#f4c8a8"] ;
679 -> 680 ;
681 [label=<squared_error = -0.0<br/>samples = 1<br/>value = -0.18>, fillcolor="#f4c9aa"] ;
679 -> 681 ;
682 [label=<9M_Mom &le; 0.023<br/>squared_error = 0.016<br/>samples = 9<br/>value = -0.038>, fillcolor="#f1bb94"] ;
662 -> 682 ;
683 [label=<squared_error = 0.0<br/>samples = 1<br/>value = 0.225>, fillcolor="#eca26d"] ;
682 -> 683 ;
684 [label=<5Y_val &le; 0.375<br/>squared_error = 0.008<br/>samples = 8<br/>value = -0.071>, fillcolor="#f2be99"] ;
682 -> 684 ;
685 [label=<9M_Mom &le; 0.087<br/>squared_error = 0.006<br/>samples = 6<br/>value = -0.034>, fillcolor="#f1bb94"] ;
684 -> 685 ;
686 [label=<5Y_val &le; 0.346<br/>squared_error = 0.003<br/>samples = 5<br/>value = -0.008>, fillcolor="#f0b890"] ;
685 -> 686 ;
687 [label=<squared_error = 0.0<br/>samples = 1<br/>value = 0.085>, fillcolor="#efaf82"] ;
686 -> 687 ;
688 [label=<5Y_val &le; 0.368<br/>squared_error = 0.001<br/>samples = 4<br/>value = -0.031>, fillcolor="#f1ba93"] ;
686 -> 688 ;
689 [label=<5Y_val &le; 0.36<br/>squared_error = 0.0<br/>samples = 3<br/>value = -0.045>, fillcolor="#f1bc95"] ;
688 -> 689 ;
690 [label=<9M_Mom &le; 0.046<br/>squared_error = 0.0<br/>samples = 2<br/>value = -0.05>, fillcolor="#f1bc96"] ;
689 -> 690 ;
691 [label=<squared_error = 0.0<br/>samples = 1<br/>value = -0.052>, fillcolor="#f1bc96"] ;
690 -> 691 ;
692 [label=<squared_error = -0.0<br/>samples = 1<br/>value = -0.048>, fillcolor="#f1bc96"] ;
690 -> 692 ;
693 [label=<squared_error = 0.0<br/>samples = 1<br/>value = -0.034>, fillcolor="#f1bb94"] ;
689 -> 693 ;
694 [label=<squared_error = -0.0<br/>samples = 1<br/>value = 0.011>, fillcolor="#f0b68d"] ;
688 -> 694 ;
695 [label=<squared_error = 0.0<br/>samples = 1<br/>value = -0.167>, fillcolor="#f4c7a8"] ;
685 -> 695 ;
696 [label=<9M_Mom &le; 0.068<br/>squared_error = 0.0<br/>samples = 2<br/>value = -0.182>, fillcolor="#f4c9aa"] ;
684 -> 696 ;
697 [label=<squared_error = 0.0<br/>samples = 1<br/>value = -0.201>, fillcolor="#f4cbad"] ;
696 -> 697 ;
698 [label=<squared_error = 0.0<br/>samples = 1<br/>value = -0.162>, fillcolor="#f3c7a7"] ;
696 -> 698 ;
699 [label=<9M_Mom &le; 0.15<br/>squared_error = 0.011<br/>samples = 23<br/>value = -0.007>, fillcolor="#f0b88f"] ;
661 -> 699 ;
700 [label=<9M_Mom &le; 0.116<br/>squared_error = 0.008<br/>samples = 11<br/>value = 0.047>, fillcolor="#efb387"] ;
699 -> 700 ;
701 [label=<5Y_val &le; 0.339<br/>squared_error = 0.001<br/>samples = 2<br/>value = 0.127>, fillcolor="#eeab7b"] ;
700 -> 701 ;
702 [label=<squared_error = 0.0<br/>samples = 1<br/>value = 0.159>, fillcolor="#eda876"] ;
701 -> 702 ;
703 [label=<squared_error = -0.0<br/>samples = 1<br/>value = 0.095>, fillcolor="#eeae80"] ;
701 -> 703 ;
704 [label=<5Y_val &le; 0.328<br/>squared_error = 0.008<br/>samples = 9<br/>value = 0.03>, fillcolor="#f0b58a"] ;
700 -> 704 ;
705 [label=<5Y_val &le; 0.286<br/>squared_error = 0.013<br/>samples = 3<br/>value = -0.031>, fillcolor="#f1ba93"] ;
704 -> 705 ;
706 [label=<squared_error = 0.0<br/>samples = 1<br/>value = 0.115>, fillcolor="#eeac7d"] ;
705 -> 706 ;
707 [label=<9M_Mom &le; 0.13<br/>squared_error = 0.004<br/>samples = 2<br/>value = -0.104>, fillcolor="#f2c19e"] ;
705 -> 707 ;
708 [label=<squared_error = 0.0<br/>samples = 1<br/>value = -0.043>, fillcolor="#f1bb95"] ;
707 -> 708 ;
709 [label=<squared_error = 0.0<br/>samples = 1<br/>value = -0.166>, fillcolor="#f4c7a7"] ;
707 -> 709 ;
710 [label=<9M_Mom &le; 0.126<br/>squared_error = 0.003<br/>samples = 6<br/>value = 0.06>, fillcolor="#efb285"] ;
704 -> 710 ;
711 [label=<5Y_val &le; 0.381<br/>squared_error = 0.001<br/>samples = 3<br/>value = 0.019>, fillcolor="#f0b68c"] ;
710 -> 711 ;
712 [label=<5Y_val &le; 0.374<br/>squared_error = 0.0<br/>samples = 2<br/>value = 0.044>, fillcolor="#efb388"] ;
711 -> 712 ;
713 [label=<squared_error = 0.0<br/>samples = 1<br/>value = 0.063>, fillcolor="#efb185"] ;
712 -> 713 ;
714 [label=<squared_error = 0.0<br/>samples = 1<br/>value = 0.025>, fillcolor="#f0b58b"] ;
712 -> 714 ;
715 [label=<squared_error = 0.0<br/>samples = 1<br/>value = -0.031>, fillcolor="#f1ba93"] ;
711 -> 715 ;
716 [label=<5Y_val &le; 0.35<br/>squared_error = 0.001<br/>samples = 3<br/>value = 0.101>, fillcolor="#eeae7f"] ;
710 -> 716 ;
717 [label=<squared_error = 0.0<br/>samples = 1<br/>value = 0.067>, fillcolor="#efb184"] ;
716 -> 717 ;
718 [label=<9M_Mom &le; 0.138<br/>squared_error = 0.0<br/>samples = 2<br/>value = 0.118>, fillcolor="#eeac7d"] ;
716 -> 718 ;
719 [label=<squared_error = 0.0<br/>samples = 1<br/>value = 0.122>, fillcolor="#eeac7c"] ;
718 -> 719 ;
720 [label=<squared_error = 0.0<br/>samples = 1<br/>value = 0.115>, fillcolor="#eeac7d"] ;
718 -> 720 ;
721 [label=<9M_Mom &le; 0.323<br/>squared_error = 0.009<br/>samples = 12<br/>value = -0.056>, fillcolor="#f1bd97"] ;
699 -> 721 ;
722 [label=<5Y_val &le; 0.337<br/>squared_error = 0.007<br/>samples = 8<br/>value = -0.096>, fillcolor="#f2c19d"] ;
721 -> 722 ;
723 [label=<5Y_val &le; 0.3<br/>squared_error = 0.003<br/>samples = 3<br/>value = -0.139>, fillcolor="#f3c5a3"] ;
722 -> 723 ;
724 [label=<squared_error = 0.0<br/>samples = 1<br/>value = -0.073>, fillcolor="#f2be99"] ;
723 -> 724 ;
725 [label=<9M_Mom &le; 0.185<br/>squared_error = 0.001<br/>samples = 2<br/>value = -0.172>, fillcolor="#f4c8a8"] ;
723 -> 725 ;
726 [label=<squared_error = 0.0<br/>samples = 1<br/>value = -0.149>, fillcolor="#f3c6a5"] ;
725 -> 726 ;
727 [label=<squared_error = 0.0<br/>samples = 1<br/>value = -0.195>, fillcolor="#f4caac"] ;
725 -> 727 ;
728 [label=<9M_Mom &le; 0.201<br/>squared_error = 0.008<br/>samples = 5<br/>value = -0.07>, fillcolor="#f2be99"] ;
722 -> 728 ;
729 [label=<9M_Mom &le; 0.164<br/>squared_error = 0.006<br/>samples = 3<br/>value = -0.016>, fillcolor="#f1b991"] ;
728 -> 729 ;
730 [label=<squared_error = 0.0<br/>samples = 1<br/>value = -0.121>, fillcolor="#f3c3a1"] ;
729 -> 730 ;
731 [label=<5Y_val &le; 0.36<br/>squared_error = 0.001<br/>samples = 2<br/>value = 0.036>, fillcolor="#f0b489"] ;
729 -> 731 ;
732 [label=<squared_error = 0.0<br/>samples = 1<br/>value = -0.001>, fillcolor="#f0b78f"] ;
731 -> 732 ;
733 [label=<squared_error = 0.0<br/>samples = 1<br/>value = 0.073>, fillcolor="#efb083"] ;
731 -> 733 ;
734 [label=<5Y_val &le; 0.364<br/>squared_error = 0.0<br/>samples = 2<br/>value = -0.151>, fillcolor="#f3c6a5"] ;
728 -> 734 ;
735 [label=<squared_error = 0.0<br/>samples = 1<br/>value = -0.137>, fillcolor="#f3c5a3"] ;
734 -> 735 ;
736 [label=<squared_error = -0.0<br/>samples = 1<br/>value = -0.166>, fillcolor="#f4c7a8"] ;
734 -> 736 ;
737 [label=<9M_Mom &le; 0.526<br/>squared_error = 0.003<br/>samples = 4<br/>value = 0.023>, fillcolor="#f0b58b"] ;
721 -> 737 ;
738 [label=<9M_Mom &le; 0.451<br/>squared_error = 0.001<br/>samples = 3<br/>value = 0.049>, fillcolor="#efb387"] ;
737 -> 738 ;
739 [label=<9M_Mom &le; 0.4<br/>squared_error = 0.0<br/>samples = 2<br/>value = 0.028>, fillcolor="#f0b58a"] ;
738 -> 739 ;
740 [label=<squared_error = 0.0<br/>samples = 1<br/>value = 0.037>, fillcolor="#efb489"] ;
739 -> 740 ;
741 [label=<squared_error = -0.0<br/>samples = 1<br/>value = 0.02>, fillcolor="#f0b58b"] ;
739 -> 741 ;
742 [label=<squared_error = 0.0<br/>samples = 1<br/>value = 0.091>, fillcolor="#eeaf81"] ;
738 -> 742 ;
743 [label=<squared_error = 0.0<br/>samples = 1<br/>value = -0.056>, fillcolor="#f1bd97"] ;
737 -> 743 ;
744 [label=<9M_Mom &le; -0.076<br/>squared_error = 0.02<br/>samples = 244<br/>value = 0.062>, fillcolor="#efb185"] ;
636 -> 744 ;
745 [label=<5Y_val &le; 0.742<br/>squared_error = 0.004<br/>samples = 7<br/>value = 0.193>, fillcolor="#eca571"] ;
744 -> 745 ;
746 [label=<9M_Mom &le; -0.077<br/>squared_error = 0.0<br/>samples = 5<br/>value = 0.234>, fillcolor="#eca16b"] ;
745 -> 746 ;
747 [label=<5Y_val &le; 0.47<br/>squared_error = 0.0<br/>samples = 4<br/>value = 0.229>, fillcolor="#eca16c"] ;
746 -> 747 ;
748 [label=<squared_error = 0.0<br/>samples = 1<br/>value = 0.237>, fillcolor="#eca16b"] ;
747 -> 748 ;
749 [label=<9M_Mom &le; -0.083<br/>squared_error = 0.0<br/>samples = 3<br/>value = 0.226>, fillcolor="#eca26c"] ;
747 -> 749 ;
750 [label=<squared_error = 0.0<br/>samples = 1<br/>value = 0.23>, fillcolor="#eca16c"] ;
749 -> 750 ;
751 [label=<9M_Mom &le; -0.08<br/>squared_error = 0.0<br/>samples = 2<br/>value = 0.224>, fillcolor="#eca26d"] ;
749 -> 751 ;
752 [label=<squared_error = 0.0<br/>samples = 1<br/>value = 0.223>, fillcolor="#eca26d"] ;
751 -> 752 ;
753 [label=<squared_error = 0.0<br/>samples = 1<br/>value = 0.225>, fillcolor="#eca26c"] ;
751 -> 753 ;
754 [label=<squared_error = -0.0<br/>samples = 1<br/>value = 0.255>, fillcolor="#eb9f68"] ;
746 -> 754 ;
755 [label=<9M_Mom &le; -0.079<br/>squared_error = 0.0<br/>samples = 2<br/>value = 0.089>, fillcolor="#eeaf81"] ;
745 -> 755 ;
756 [label=<squared_error = 0.0<br/>samples = 1<br/>value = 0.103>, fillcolor="#eeae7f"] ;
755 -> 756 ;
757 [label=<squared_error = -0.0<br/>samples = 1<br/>value = 0.076>, fillcolor="#efb083"] ;
755 -> 757 ;
758 [label=<9M_Mom &le; -0.071<br/>squared_error = 0.02<br/>samples = 237<br/>value = 0.058>, fillcolor="#efb286"] ;
744 -> 758 ;
759 [label=<9M_Mom &le; -0.073<br/>squared_error = 0.011<br/>samples = 3<br/>value = -0.136>, fillcolor="#f3c4a3"] ;
758 -> 759 ;
760 [label=<5Y_val &le; 0.907<br/>squared_error = 0.0<br/>samples = 2<br/>value = -0.061>, fillcolor="#f1bd98"] ;
759 -> 760 ;
761 [label=<squared_error = 0.0<br/>samples = 1<br/>value = -0.07>, fillcolor="#f2be99"] ;
760 -> 761 ;
762 [label=<squared_error = 0.0<br/>samples = 1<br/>value = -0.052>, fillcolor="#f1bc96"] ;
760 -> 762 ;
763 [label=<squared_error = 0.0<br/>samples = 1<br/>value = -0.285>, fillcolor="#f6d3b9"] ;
759 -> 763 ;
764 [label=<9M_Mom &le; -0.015<br/>squared_error = 0.02<br/>samples = 234<br/>value = 0.061>, fillcolor="#efb285"] ;
758 -> 764 ;
765 [label=<5Y_val &le; 0.803<br/>squared_error = 0.016<br/>samples = 24<br/>value = 0.128>, fillcolor="#eeab7b"] ;
764 -> 765 ;
766 [label=<5Y_val &le; 0.632<br/>squared_error = 0.011<br/>samples = 20<br/>value = 0.16>, fillcolor="#eda876"] ;
765 -> 766 ;
767 [label=<9M_Mom &le; -0.035<br/>squared_error = 0.007<br/>samples = 16<br/>value = 0.126>, fillcolor="#eeab7b"] ;
766 -> 767 ;
768 [label=<9M_Mom &le; -0.067<br/>squared_error = 0.002<br/>samples = 6<br/>value = 0.179>, fillcolor="#eda673"] ;
767 -> 768 ;
769 [label=<squared_error = 0.0<br/>samples = 1<br/>value = 0.255>, fillcolor="#eb9f68"] ;
768 -> 769 ;
770 [label=<9M_Mom &le; -0.04<br/>squared_error = 0.002<br/>samples = 5<br/>value = 0.163>, fillcolor="#eda876"] ;
768 -> 770 ;
771 [label=<5Y_val &le; 0.52<br/>squared_error = 0.001<br/>samples = 4<br/>value = 0.147>, fillcolor="#eda978"] ;
770 -> 771 ;
772 [label=<5Y_val &le; 0.493<br/>squared_error = 0.0<br/>samples = 2<br/>value = 0.169>, fillcolor="#eda775"] ;
771 -> 772 ;
773 [label=<squared_error = 0.0<br/>samples = 1<br/>value = 0.176>, fillcolor="#eda674"] ;
772 -> 773 ;
774 [label=<squared_error = -0.0<br/>samples = 1<br/>value = 0.162>, fillcolor="#eda876"] ;
772 -> 774 ;
775 [label=<9M_Mom &le; -0.048<br/>squared_error = 0.0<br/>samples = 2<br/>value = 0.125>, fillcolor="#eeab7c"] ;
771 -> 775 ;
776 [label=<squared_error = 0.0<br/>samples = 1<br/>value = 0.127>, fillcolor="#eeab7b"] ;
775 -> 776 ;
777 [label=<squared_error = -0.0<br/>samples = 1<br/>value = 0.123>, fillcolor="#eeac7c"] ;
775 -> 777 ;
778 [label=<squared_error = 0.0<br/>samples = 1<br/>value = 0.229>, fillcolor="#eca16c"] ;
770 -> 778 ;
779 [label=<5Y_val &le; 0.602<br/>squared_error = 0.007<br/>samples = 10<br/>value = 0.095>, fillcolor="#eeae80"] ;
767 -> 779 ;
780 [label=<5Y_val &le; 0.434<br/>squared_error = 0.002<br/>samples = 7<br/>value = 0.129>, fillcolor="#eeab7b"] ;
779 -> 780 ;
781 [label=<5Y_val &le; 0.41<br/>squared_error = 0.0<br/>samples = 2<br/>value = 0.089>, fillcolor="#eeaf81"] ;
780 -> 781 ;
782 [label=<squared_error = 0.0<br/>samples = 1<br/>value = 0.11>, fillcolor="#eead7e"] ;
781 -> 782 ;
783 [label=<squared_error = 0.0<br/>samples = 1<br/>value = 0.068>, fillcolor="#efb184"] ;
781 -> 783 ;
784 [label=<5Y_val &le; 0.494<br/>squared_error = 0.001<br/>samples = 5<br/>value = 0.145>, fillcolor="#eda979"] ;
780 -> 784 ;
785 [label=<5Y_val &le; 0.456<br/>squared_error = 0.0<br/>samples = 2<br/>value = 0.182>, fillcolor="#eda673"] ;
784 -> 785 ;
786 [label=<squared_error = 0.0<br/>samples = 1<br/>value = 0.191>, fillcolor="#eca572"] ;
785 -> 786 ;
787 [label=<squared_error = -0.0<br/>samples = 1<br/>value = 0.174>, fillcolor="#eda774"] ;
785 -> 787 ;
788 [label=<5Y_val &le; 0.582<br/>squared_error = 0.0<br/>samples = 3<br/>value = 0.12>, fillcolor="#eeac7c"] ;
784 -> 788 ;
789 [label=<5Y_val &le; 0.545<br/>squared_error = 0.0<br/>samples = 2<br/>value = 0.111>, fillcolor="#eead7e"] ;
788 -> 789 ;
790 [label=<squared_error = 0.0<br/>samples = 1<br/>value = 0.105>, fillcolor="#eead7f"] ;
789 -> 790 ;
791 [label=<squared_error = 0.0<br/>samples = 1<br/>value = 0.117>, fillcolor="#eeac7d"] ;
789 -> 791 ;
792 [label=<squared_error = 0.0<br/>samples = 1<br/>value = 0.138>, fillcolor="#edaa7a"] ;
788 -> 792 ;
793 [label=<9M_Mom &le; -0.032<br/>squared_error = 0.009<br/>samples = 3<br/>value = 0.015>, fillcolor="#f0b68c"] ;
779 -> 793 ;
794 [label=<squared_error = 0.0<br/>samples = 1<br/>value = 0.143>, fillcolor="#edaa79"] ;
793 -> 794 ;
795 [label=<5Y_val &le; 0.615<br/>squared_error = 0.001<br/>samples = 2<br/>value = -0.05>, fillcolor="#f1bc96"] ;
793 -> 795 ;
796 [label=<squared_error = 0.0<br/>samples = 1<br/>value = -0.016>, fillcolor="#f1b991"] ;
795 -> 796 ;
797 [label=<squared_error = -0.0<br/>samples = 1<br/>value = -0.083>, fillcolor="#f2bf9b"] ;
795 -> 797 ;
798 [label=<9M_Mom &le; -0.056<br/>squared_error = 0.004<br/>samples = 4<br/>value = 0.296>, fillcolor="#ea9b62"] ;
766 -> 798 ;
799 [label=<squared_error = 0.0<br/>samples = 1<br/>value = 0.204>, fillcolor="#eca470"] ;
798 -> 799 ;
800 [label=<9M_Mom &le; -0.022<br/>squared_error = 0.001<br/>samples = 3<br/>value = 0.327>, fillcolor="#ea985d"] ;
798 -> 800 ;
801 [label=<5Y_val &le; 0.738<br/>squared_error = 0.0<br/>samples = 2<br/>value = 0.305>, fillcolor="#ea9a60"] ;
800 -> 801 ;
802 [label=<squared_error = 0.0<br/>samples = 1<br/>value = 0.324>, fillcolor="#ea985e"] ;
801 -> 802 ;
803 [label=<squared_error = 0.0<br/>samples = 1<br/>value = 0.286>, fillcolor="#eb9c63"] ;
801 -> 803 ;
804 [label=<squared_error = -0.0<br/>samples = 1<br/>value = 0.372>, fillcolor="#e99456"] ;
800 -> 804 ;
805 [label=<5Y_val &le; 0.85<br/>squared_error = 0.01<br/>samples = 4<br/>value = -0.033>, fillcolor="#f1bb93"] ;
765 -> 805 ;
806 [label=<5Y_val &le; 0.825<br/>squared_error = 0.007<br/>samples = 2<br/>value = 0.04>, fillcolor="#efb488"] ;
805 -> 806 ;
807 [label=<squared_error = 0.0<br/>samples = 1<br/>value = -0.047>, fillcolor="#f1bc95"] ;
806 -> 807 ;
808 [label=<squared_error = 0.0<br/>samples = 1<br/>value = 0.126>, fillcolor="#eeab7b"] ;
806 -> 808 ;
809 [label=<9M_Mom &le; -0.04<br/>squared_error = 0.002<br/>samples = 2<br/>value = -0.106>, fillcolor="#f2c29e"] ;
805 -> 809 ;
810 [label=<squared_error = 0.0<br/>samples = 1<br/>value = -0.058>, fillcolor="#f1bd97"] ;
809 -> 810 ;
811 [label=<squared_error = 0.0<br/>samples = 1<br/>value = -0.154>, fillcolor="#f3c6a6"] ;
809 -> 811 ;
812 [label=<9M_Mom &le; 0.056<br/>squared_error = 0.02<br/>samples = 210<br/>value = 0.053>, fillcolor="#efb286"] ;
764 -> 812 ;
813 [label=<9M_Mom &le; 0.03<br/>squared_error = 0.01<br/>samples = 54<br/>value = 0.016>, fillcolor="#f0b68c"] ;
812 -> 813 ;
814 [label=<9M_Mom &le; 0.0<br/>squared_error = 0.008<br/>samples = 28<br/>value = 0.045>, fillcolor="#efb388"] ;
813 -> 814 ;
815 [label=<5Y_val &le; 0.454<br/>squared_error = 0.008<br/>samples = 8<br/>value = -0.028>, fillcolor="#f1ba93"] ;
814 -> 815 ;
816 [label=<squared_error = 0.0<br/>samples = 1<br/>value = -0.2>, fillcolor="#f4cbad"] ;
815 -> 816 ;
817 [label=<5Y_val &le; 0.829<br/>squared_error = 0.004<br/>samples = 7<br/>value = -0.003>, fillcolor="#f0b88f"] ;
815 -> 817 ;
818 [label=<9M_Mom &le; -0.003<br/>squared_error = 0.001<br/>samples = 4<br/>value = 0.049>, fillcolor="#efb387"] ;
817 -> 818 ;
819 [label=<5Y_val &le; 0.673<br/>squared_error = 0.001<br/>samples = 3<br/>value = 0.063>, fillcolor="#efb185"] ;
818 -> 819 ;
820 [label=<5Y_val &le; 0.637<br/>squared_error = 0.0<br/>samples = 2<br/>value = 0.082>, fillcolor="#efaf82"] ;
819 -> 820 ;
821 [label=<squared_error = 0.0<br/>samples = 1<br/>value = 0.095>, fillcolor="#eeae80"] ;
820 -> 821 ;
822 [label=<squared_error = 0.0<br/>samples = 1<br/>value = 0.069>, fillcolor="#efb184"] ;
820 -> 822 ;
823 [label=<squared_error = -0.0<br/>samples = 1<br/>value = 0.025>, fillcolor="#f0b58b"] ;
819 -> 823 ;
824 [label=<squared_error = 0.0<br/>samples = 1<br/>value = 0.007>, fillcolor="#f0b78d"] ;
818 -> 824 ;
825 [label=<5Y_val &le; 0.96<br/>squared_error = 0.0<br/>samples = 3<br/>value = -0.072>, fillcolor="#f2be99"] ;
817 -> 825 ;
826 [label=<squared_error = 0.0<br/>samples = 1<br/>value = -0.067>, fillcolor="#f2be99"] ;
825 -> 826 ;
827 [label=<5Y_val &le; 0.979<br/>squared_error = 0.0<br/>samples = 2<br/>value = -0.075>, fillcolor="#f2bf9a"] ;
825 -> 827 ;
828 [label=<squared_error = 0.0<br/>samples = 1<br/>value = -0.077>, fillcolor="#f2bf9a"] ;
827 -> 828 ;
829 [label=<squared_error = -0.0<br/>samples = 1<br/>value = -0.073>, fillcolor="#f2be99"] ;
827 -> 829 ;
830 [label=<9M_Mom &le; 0.023<br/>squared_error = 0.005<br/>samples = 20<br/>value = 0.074>, fillcolor="#efb083"] ;
814 -> 830 ;
831 [label=<9M_Mom &le; 0.019<br/>squared_error = 0.006<br/>samples = 15<br/>value = 0.086>, fillcolor="#efaf81"] ;
830 -> 831 ;
832 [label=<9M_Mom &le; 0.009<br/>squared_error = 0.004<br/>samples = 14<br/>value = 0.076>, fillcolor="#efb083"] ;
831 -> 832 ;
833 [label=<5Y_val &le; 0.53<br/>squared_error = 0.002<br/>samples = 7<br/>value = 0.053>, fillcolor="#efb286"] ;
832 -> 833 ;
834 [label=<9M_Mom &le; 0.007<br/>squared_error = 0.001<br/>samples = 4<br/>value = 0.086>, fillcolor="#efaf81"] ;
833 -> 834 ;
835 [label=<9M_Mom &le; 0.002<br/>squared_error = 0.0<br/>samples = 3<br/>value = 0.103>, fillcolor="#eead7f"] ;
834 -> 835 ;
836 [label=<squared_error = 0.0<br/>samples = 1<br/>value = 0.124>, fillcolor="#eeab7c"] ;
835 -> 836 ;
837 [label=<5Y_val &le; 0.455<br/>squared_error = 0.0<br/>samples = 2<br/>value = 0.093>, fillcolor="#eeae80"] ;
835 -> 837 ;
838 [label=<squared_error = 0.0<br/>samples = 1<br/>value = 0.094>, fillcolor="#eeae80"] ;
837 -> 838 ;
839 [label=<squared_error = -0.0<br/>samples = 1<br/>value = 0.092>, fillcolor="#eeaf81"] ;
837 -> 839 ;
840 [label=<squared_error = -0.0<br/>samples = 1<br/>value = 0.035>, fillcolor="#f0b489"] ;
834 -> 840 ;
841 [label=<5Y_val &le; 0.686<br/>squared_error = 0.001<br/>samples = 3<br/>value = 0.009>, fillcolor="#f0b68d"] ;
833 -> 841 ;
842 [label=<5Y_val &le; 0.551<br/>squared_error = 0.0<br/>samples = 2<br/>value = -0.013>, fillcolor="#f0b990"] ;
841 -> 842 ;
843 [label=<squared_error = 0.0<br/>samples = 1<br/>value = -0.02>, fillcolor="#f1b991"] ;
842 -> 843 ;
844 [label=<squared_error = -0.0<br/>samples = 1<br/>value = -0.007>, fillcolor="#f0b88f"] ;
842 -> 844 ;
845 [label=<squared_error = 0.0<br/>samples = 1<br/>value = 0.054>, fillcolor="#efb286"] ;
841 -> 845 ;
846 [label=<5Y_val &le; 0.588<br/>squared_error = 0.005<br/>samples = 7<br/>value = 0.098>, fillcolor="#eeae80"] ;
832 -> 846 ;
847 [label=<5Y_val &le; 0.575<br/>squared_error = 0.001<br/>samples = 2<br/>value = 0.186>, fillcolor="#eda572"] ;
846 -> 847 ;
848 [label=<squared_error = 0.0<br/>samples = 1<br/>value = 0.221>, fillcolor="#eca26d"] ;
847 -> 848 ;
849 [label=<squared_error = 0.0<br/>samples = 1<br/>value = 0.152>, fillcolor="#eda978"] ;
847 -> 849 ;
850 [label=<9M_Mom &le; 0.016<br/>squared_error = 0.002<br/>samples = 5<br/>value = 0.063>, fillcolor="#efb185"] ;
846 -> 850 ;
851 [label=<9M_Mom &le; 0.013<br/>squared_error = 0.001<br/>samples = 3<br/>value = 0.028>, fillcolor="#f0b58a"] ;
850 -> 851 ;
852 [label=<squared_error = 0.0<br/>samples = 1<br/>value = 0.063>, fillcolor="#efb185"] ;
851 -> 852 ;
853 [label=<9M_Mom &le; 0.015<br/>squared_error = 0.0<br/>samples = 2<br/>value = 0.01>, fillcolor="#f0b68d"] ;
851 -> 853 ;
854 [label=<squared_error = 0.0<br/>samples = 1<br/>value = 0.02>, fillcolor="#f0b58b"] ;
853 -> 854 ;
855 [label=<squared_error = 0.0<br/>samples = 1<br/>value = 0.001>, fillcolor="#f0b78e"] ;
853 -> 855 ;
856 [label=<5Y_val &le; 0.732<br/>squared_error = 0.0<br/>samples = 2<br/>value = 0.115>, fillcolor="#eeac7d"] ;
850 -> 856 ;
857 [label=<squared_error = 0.0<br/>samples = 1<br/>value = 0.134>, fillcolor="#eeab7a"] ;
856 -> 857 ;
858 [label=<squared_error = 0.0<br/>samples = 1<br/>value = 0.096>, fillcolor="#eeae80"] ;
856 -> 858 ;
859 [label=<squared_error = -0.0<br/>samples = 1<br/>value = 0.234>, fillcolor="#eca16b"] ;
831 -> 859 ;
